import { useEffect, useState } from 'react';
import Script from 'next/script';

async function fetchTraining() {
  const res = await fetch("/pages/7/train.json");
  const data = await res.json();
  return data.data;
}

export default function Train({ setNetwork }) {
  const [brainLoaded, setBrainLoaded] = useState(false);

  useEffect(() => {
    if (brainLoaded) {
      async function initNetwork() {
        // const trainingData = await fetchTraining();
        const trainingData = {
          "type": "NeuralNetwork",
          "sizes": [
              3,
              24,
              24,
              24,
              24,
              3
          ],
          "layers": [
              {
                  "weights": [],
                  "biases": []
              },
              {
                  "weights": [
                      [ -9.598434448242188, 5.833962440490723, -10.037632942199707 ],
                      [ -1.3048385381698608, -3.5841550827026367, -0.06782858818769455 ],
                      [ -2.0179550647735596, -0.9999667406082153, -0.08007091283798218 ],
                      [ 2.647441864013672, -5.040948390960693, -0.11798597872257233 ],
                      [ 4.4701337814331055, -2.319774627685547, -0.11105532944202423 ],
                      [ -0.5949267148971558, -4.691131591796875, -0.053762856870889664 ],
                      [ -1.039232611656189, -4.5506591796875, -0.057904571294784546 ],
                      [ -8.089642524719238, 9.369292259216309, -3.634787082672119 ],
                      [ 2.4109890460968018, -2.702052354812622, -0.004865575581789017 ],
                      [ -2.8811376094818115, -1.7496280670166016, -0.7146174311637878 ],
                      [ -1.8645445108413696, -0.6579674482345581, -0.08499545603990555 ],
                      [ 2.686297655105591, 3.7838494777679443, 3.7305819988250732 ],
                      [ -2.0715012550354004, -3.1006901264190674, -0.09662775695323944 ],
                      [ -1.3333498239517212, -3.254976511001587, -0.06570468097925186 ],
                      [
                          1.2229410409927368,
                          1.17300283908844,
                          4.061203956604004 ],
                      [ -0.842868983745575, -4.117865562438965, -0.042096808552742004 ],
                      [
                          4.7382636070251465,
                          1.4615861177444458,
                          6.485038757324219 ],
                      [ -2.266832113265991, -4.436123847961426, -0.0964609682559967 ],
                      [ -1.629242181777954, -3.8578577041625977, -0.07484360784292221 ],
                      [ -0.39966881275177, -5.055567264556885, -0.046174317598342896 ],
                      [
                          1.895942211151123,
                          3.66292142868042,
                          4.962245941162109 ],
                      [
                          12.730635643005371,
                          0.9296291470527649, -15.262330055236816 ],
                      [
                          1.3670114278793335,
                          0.489470511674881, -17.69460678100586 ],
                      [ -1.9788445234298706, -4.720130443572998, -0.07866336405277252 ]
                  ],
                  "biases": [
                      2.3829054832458496,
                      0.432498961687088,
                      -0.03442954272031784,
                      2.637739896774292,
                      -0.5280984044075012,
                      0.6067420840263367,
                      0.7649794220924377,
                      2.2995431423187256,
                      -0.36318233609199524,
                      0.029905542731285095,
                      -0.4497588574886322,
                      -2.706871747970581,
                      0.2182455211877823,
                      0.7523168921470642,
                      -4.645893573760986,
                      2.4168577194213867,
                      -6.121922492980957,
                      0.5627175569534302,
                      0.4259163737297058,
                      0.6554235816001892,
                      -3.139479637145996,
                      0.6068538427352905,
                      0.9529915452003479,
                      0.5818168520927429
                  ]
              },
              {
                  "weights": [
                      [
                          3.6725637912750244, -0.8015134930610657, -0.16909699141979218, -0.4749869108200073, -0.38115403056144714, -1.1030720472335815, -0.8700336217880249,
                          0.7264007329940796, -0.42264798283576965, -0.227003812789917, -0.22589382529258728,
                          0.8089328408241272, -0.5381019711494446, -0.568314790725708,
                          1.14499831199646, -0.667069673538208,
                          0.9597260355949402, -0.9659624099731445, -0.9223095178604126, -1.3091514110565186,
                          0.692642331123352,
                          2.3783185482025146,
                          2.930051803588867, -0.990655779838562 ],
                      [ -4.87335205078125,
                          0.981141209602356,
                          0.24099381268024445,
                          0.5455712676048279,
                          0.015571735799312592,
                          1.2656038999557495,
                          1.3296087980270386, -1.282439112663269,
                          0.46908262372016907,
                          0.7045403122901917,
                          0.1337895393371582, -1.8626612424850464,
                          1.045788049697876,
                          0.8749524354934692, -1.3543919324874878,
                          0.7593609690666199, -2.199357748031616,
                          1.3895554542541504,
                          1.3851336240768433,
                          1.2633651494979858, -1.796088695526123, -2.1655807495117188, -4.354611873626709,
                          1.5450351238250732 ],
                      [ -0.3032795190811157,
                          0.9929623603820801,
                          0.40069711208343506,
                          0.789067804813385,
                          0.044508833438158035,
                          0.7864983081817627,
                          1.0043895244598389,
                          0.12803658843040466,
                          0.2845860719680786,
                          1.2980265617370605,
                          0.7324960231781006, -1.5361989736557007,
                          0.8777786493301392,
                          0.999841034412384, -1.3851301670074463,
                          0.7810810804367065, -1.0698336362838745,
                          1.4319196939468384,
                          1.0225894451141357,
                          0.9951825737953186, -1.4786406755447388, -7.614047050476074, -1.847348690032959,
                          1.3367713689804077 ],
                      [
                          2.9642179012298584,
                          0.4521939754486084,
                          0.3658287227153778, -0.043345287442207336, -0.5280938744544983,
                          0.25965455174446106,
                          0.41378074884414673,
                          0.3805011808872223, -0.11848475784063339,
                          0.8561081290245056,
                          0.34434571862220764, -3.4492762088775635,
                          0.6290060877799988,
                          0.49672314524650574, -2.1511285305023193,
                          0.2348800003528595, -2.8573150634765625,
                          0.969932496547699,
                          0.5058119893074036,
                          0.3705069124698639, -3.3811142444610596, -1.1272386312484741, -0.33200979232788086,
                          0.5961053371429443 ],
                      [
                          4.611083507537842, -0.9929996132850647,
                          0.04006059840321541, -4.422951698303223, -3.08429217338562, -1.156950831413269, -1.2653772830963135,
                          7.758256435394287, -0.8535930514335632,
                          0.4828846752643585,
                          0.5776806473731995,
                          0.3470875322818756, -0.560827374458313, -0.892806887626648, -0.029250066727399826, -1.0452489852905273,
                          1.6789441108703613, -1.0411361455917358, -0.7364085912704468, -1.1215977668762207,
                          0.5709715485572815,
                          2.6544594764709473, -0.7434130311012268, -1.0277833938598633 ],
                      [ -1.9406611919403076, -0.08361652493476868, -0.2887411415576935,
                          1.1665791273117065,
                          1.7465579509735107,
                          0.1084589883685112,
                          0.13344737887382507, -1.8450590372085571,
                          0.07963040471076965, -0.2593013644218445, -0.33703383803367615,
                          0.19847819209098816, -0.10295037925243378, -0.06929067522287369,
                          0.9067361950874329,
                          0.4125801622867584, -1.0120477676391602, -0.2390575408935547, -0.13259917497634888,
                          0.3527056574821472, -0.37144798040390015,
                          0.7475429177284241, -1.3945423364639282, -0.19985331594944 ],
                      [
                          4.992401599884033, -1.4346476793289185, -0.7932901382446289, -1.2357876300811768, -0.0496927909553051, -1.4902712106704712, -1.6738108396530151,
                          1.4838680028915405, -0.6115949153900146, -1.0054274797439575, -0.5121167302131653,
                          1.1477926969528198, -1.3950891494750977, -1.4299501180648804,
                          1.381893515586853, -1.4111607074737549,
                          1.5996549129486084, -1.6711158752441406, -1.3832188844680786, -1.535233974456787,
                          0.7126206159591675,
                          2.7603721618652344,
                          5.640801429748535, -1.8833235502243042 ],
                      [ -6.28640079498291,
                          0.0033843351993709803, -0.705945611000061, -0.03278828784823418,
                          0.637732982635498,
                          0.8411319255828857,
                          0.6934023499488831,
                          2.7974607944488525, -0.19991393387317657, -0.3854506313800812, -0.4156520664691925, -0.7475538849830627, -0.24328550696372986, -0.23509791493415833, -0.8683996796607971,
                          0.06966007500886917, -2.955751895904541,
                          0.1429050862789154,
                          0.08758411556482315,
                          0.992759108543396, -1.0660490989685059,
                          6.373758792877197, -3.3410022258758545,
                          0.36896419525146484 ],
                      [
                          6.179837703704834, -1.323362946510315, -0.5162051916122437, -0.8941721320152283, -0.3566240072250366, -1.755665898323059, -1.8496512174606323,
                          0.7699318528175354, -0.554003119468689, -0.9773260951042175, -0.2953009605407715,
                          1.4433259963989258, -1.3476537466049194, -1.2732062339782715,
                          1.2190840244293213, -1.6325329542160034,
                          2.515113592147827, -1.7902953624725342, -1.4531354904174805, -1.7570221424102783,
                          1.2106521129608154,
                          2.614983081817627,
                          6.671273708343506, -1.7038193941116333 ],
                      [
                          3.6433610916137695, -0.6841374039649963, -0.2920312285423279,
                          0.5082094073295593, -0.23456767201423645, -0.948834240436554, -0.8874055743217468, -4.008080005645752, -1.1665939092636108, -0.686970055103302, -0.15795908868312836,
                          0.7802727222442627, -0.923619270324707, -0.6845667362213135, -0.35980403423309326,
                          0.23607490956783295,
                          0.09157539904117584, -1.0982612371444702, -1.0729089975357056, -0.8888033032417297,
                          0.4672220051288605,
                          10.915042877197266,
                          0.42361319065093994, -1.518811583518982 ],
                      [
                          3.310106039047241,
                          2.0852904319763184,
                          1.1162019968032837,
                          3.4520113468170166,
                          0.1771891564130783,
                          2.349341869354248,
                          2.673701286315918,
                          1.7426165342330933,
                          0.7287103533744812,
                          1.670295000076294,
                          0.7095155715942383, -4.206406116485596,
                          1.9968756437301636,
                          2.2226996421813965, -3.033747911453247,
                          2.825640916824341, -4.6818084716796875,
                          2.8062329292297363,
                          2.321241855621338,
                          2.561184883117676, -4.281703472137451, -2.6257500648498535, -4.019682884216309,
                          2.751307487487793 ],
                      [ -4.04314661026001,
                          0.7199191451072693, -0.08795033395290375,
                          3.3441689014434814,
                          2.488584280014038,
                          1.1994905471801758,
                          1.0323511362075806, -5.053055763244629,
                          1.0978108644485474, -0.6932498812675476, -0.524443507194519, -0.7377913594245911,
                          0.18900030851364136,
                          0.9115331172943115, -1.3952856063842773,
                          2.2639455795288086, -0.3012811839580536,
                          0.3992103338241577,
                          0.6028366684913635,
                          1.4765173196792603, -0.6656103134155273,
                          0.9764500856399536, -1.0240310430526733,
                          0.6023589372634888 ],
                      [ -0.4897163510322571, -0.17771756649017334, -0.14208436012268066, -0.24846893548965454, -0.14462879300117493, -0.051661185920238495, -0.16085375845432281, -0.5017879009246826, -0.023234838619828224, -0.07073890417814255, -0.27684885263442993,
                          0.33741822838783264,
                          0.05071008577942848, -0.32706543803215027, -0.4878678619861603, -0.15260049700737, -0.08666203916072845,
                          0.01602344401180744, -0.1351187825202942, -0.022750966250896454,
                          0.10419568419456482, -0.5015554428100586, -0.9124364852905273, -0.0381227545440197 ],
                      [ -1.8787623643875122, -0.08123138546943665, -1.2822273969650269, -0.46266302466392517,
                          1.1984270811080933,
                          0.4792954921722412,
                          0.28633520007133484, -2.596731662750244, -0.2605501115322113, -1.2575597763061523, -1.0169376134872437, -1.8530229330062866, -0.3272332549095154, -0.46666356921195984, -0.9242745637893677, -0.3383517265319824, -2.4936330318450928,
                          0.000037116747989784926, -0.08545485138893127,
                          0.4355953335762024, -2.97487735748291,
                          8.666788101196289,
                          3.7596731185913086,
                          0.23002445697784424 ],
                      [ -2.9652726650238037,
                          0.9067631363868713,
                          0.4894840717315674,
                          1.170073390007019,
                          0.3489271402359009,
                          1.1031965017318726,
                          1.0515908002853394,
                          0.4425148367881775,
                          0.699752151966095,
                          0.39390528202056885,
                          0.3382997214794159, -1.7827160358428955,
                          0.5974831581115723,
                          0.6713063716888428, -1.8665375709533691,
                          1.2274954319000244, -4.021580696105957,
                          0.8836997747421265,
                          0.7990220189094543,
                          1.2102516889572144, -2.247758626937866,
                          1.729447841644287, -2.1349101066589355,
                          0.945745050907135 ],
                      [ -4.577498435974121,
                          0.8037684559822083,
                          0.13675986230373383,
                          0.8762705326080322,
                          0.3908938467502594,
                          1.400220274925232,
                          1.3220305442810059, -3.128631114959717,
                          0.8177170753479004, -0.5110349655151367, -0.0779479593038559, -0.838151216506958,
                          0.2239130586385727,
                          0.9090901613235474, -1.1439965963363647,
                          1.8884785175323486, -0.9348326325416565,
                          0.6191518902778625,
                          0.8569512367248535,
                          1.7254893779754639, -0.8969821333885193,
                          1.1646009683609009, -0.5228295922279358,
                          0.7001288533210754 ],
                      [ -2.9933245182037354,
                          1.0719664096832275,
                          0.598308265209198,
                          2.2232489585876465, -0.9600753784179688,
                          1.2968615293502808,
                          1.3144832849502563,
                          3.104283094406128,
                          0.8858552575111389,
                          0.7618458867073059,
                          0.7089263796806335, -0.7312259674072266,
                          0.9096373319625854,
                          1.1099708080291748, -3.5307116508483887,
                          2.3782541751861572, -0.14629966020584106,
                          0.75100177526474,
                          0.9276943206787109,
                          1.1533167362213135, -0.6165570020675659, -2.9315483570098877, -3.1025986671447754,
                          0.7993689179420471 ],
                      [
                          2.5991854667663574,
                          0.597224771976471,
                          0.16535408794879913,
                          0.5358303785324097, -0.4965417981147766,
                          0.7318065166473389,
                          0.8666781783103943,
                          0.7926872968673706, -0.09659098088741302,
                          0.7834395170211792,
                          0.24787269532680511, -3.4207358360290527,
                          0.9284629821777344,
                          0.7502183318138123, -2.9059057235717773,
                          0.5618375539779663, -3.002779722213745,
                          1.0706348419189453,
                          0.8224012851715088,
                          0.7162531018257141, -3.366196632385254,
                          2.789504051208496,
                          1.3053944110870361,
                          1.3163050413131714 ],
                      [ -1.332626461982727,
                          0.749977707862854,
                          1.4004048109054565,
                          1.4578497409820557,
                          0.21047863364219666,
                          1.10735285282135,
                          1.1232185363769531,
                          0.0698901116847992,
                          0.40661293268203735,
                          0.15169987082481384,
                          0.7948525547981262, -0.2892201542854309,
                          0.714338481426239,
                          1.3424711227416992,
                          2.33530855178833,
                          2.1436197757720947, -0.14373065531253815,
                          0.6164791584014893,
                          0.8296361565589905,
                          1.2000595331192017, -0.4023812711238861, -3.470684766769409, -1.2214210033416748,
                          0.6964840292930603 ],
                      [ -0.7004348039627075,
                          0.3293955326080322,
                          0.12687160074710846, -0.8826574683189392, -1.2551870346069336, -0.23981091380119324,
                          0.29737114906311035,
                          0.29210981726646423,
                          0.18902596831321716, -0.21242165565490723, -0.04864424839615822,
                          0.7898443937301636, -0.1020028293132782,
                          0.23144428431987762,
                          0.47967588901519775,
                          0.3768306374549866,
                          0.8744057416915894,
                          0.05169568583369255,
                          0.30097895860671997,
                          0.2851980924606323,
                          1.0018805265426636, -2.9033846855163574, -0.7565048933029175, -0.0573711022734642 ],
                      [ -5.032508850097656,
                          0.7428798079490662,
                          0.06381496787071228,
                          0.8212419152259827,
                          0.3216751515865326,
                          1.040610909461975,
                          1.0093889236450195, -1.6482597589492798,
                          0.5203968286514282,
                          0.3281838893890381,
                          0.2538028359413147, -0.6980940699577332,
                          0.6535223126411438,
                          0.7959796786308289, -0.8410118818283081,
                          1.3974671363830566, -1.6826000213623047,
                          0.6121610403060913,
                          0.8806678056716919,
                          1.438379168510437, -0.9752435684204102,
                          0.9603713750839233, -3.3590309619903564,
                          1.0065820217132568 ],
                      [
                          0.1498267948627472, -0.32501664757728577, -0.02886979654431343,
                          0.570870578289032,
                          0.08097601681947708,
                          0.08579151332378387, -0.24049726128578186,
                          0.027357002720236778, -0.12012264877557755, -0.06553514301776886,
                          0.02049744501709938, -0.7915733456611633, -0.19313839077949524, -0.13164642453193665, -1.0938471555709839,
                          0.16878218948841095, -2.2828030586242676, -0.36449554562568665, -0.34781572222709656, -0.06284654140472412, -1.4173064231872559,
                          2.7470896244049072,
                          0.9059580564498901, -0.08141060173511505 ],
                      [ -0.9034207463264465,
                          0.2555933892726898, -0.2283868044614792,
                          0.27086305618286133,
                          0.17012111842632294,
                          0.4134184420108795,
                          0.5490200519561768, -0.8173340559005737,
                          0.10062393546104431,
                          0.10414541512727737, -0.03217113018035889, -1.0996016263961792, -0.023315347731113434,
                          0.1615348905324936, -0.7350833415985107,
                          0.5996392965316772, -1.377882957458496,
                          0.43552762269973755,
                          0.11520829051733017,
                          0.5721415877342224, -1.0974491834640503,
                          0.4037637710571289, -1.4834516048431396,
                          0.39065054059028625 ],
                      [ -2.665757417678833,
                          0.5538787841796875, -0.14852730929851532,
                          0.9980141520500183,
                          1.0480520725250244,
                          1.0600508451461792,
                          0.7057175636291504, -4.446132659912109,
                          0.7788861989974976, -0.6574476361274719, -0.3783804476261139, -1.0079377889633179,
                          0.09770946204662323,
                          0.48817604780197144, -1.2042512893676758,
                          0.9200998544692993, -0.8763161301612854,
                          0.23739251494407654,
                          0.4167290925979614,
                          1.0046347379684448, -1.135788917541504,
                          0.34365037083625793,
                          0.16145926713943481,
                          0.28877753019332886 ]
                  ],
                  "biases": [
                      0.6500211954116821,
                      -1.1841117143630981,
                      -0.16461032629013062,
                      -0.8977657556533813,
                      0.7053772211074829,
                      0.09444625675678253,
                      0.03813818842172623,
                      0.0066511002369225025,
                      -0.028652111068367958,
                      0.46630987524986267,
                      -0.24960242211818695,
                      -1.2362604141235352,
                      0.003590172156691551,
                      -0.8348032832145691,
                      -0.2110416442155838,
                      -0.6346355080604553,
                      -0.1417233943939209,
                      -1.127943515777588,
                      -1.3804850578308105,
                      -0.8687016367912292,
                      -0.41074150800704956,
                      -0.5653963088989258,
                      -0.6618877649307251,
                      -0.9250473380088806
                  ]
              },
              {
                  "weights": [
                      [ -1.0629068613052368,
                          1.6041162014007568,
                          3.0581207275390625, -0.6887389421463013, -1.1613205671310425, -0.35179418325424194, -1.2981722354888916, -0.4273473918437958, -1.7598519325256348, -4.366176605224609,
                          1.6689683198928833, -0.44942182302474976,
                          0.1270429790019989, -1.6668329238891602,
                          0.15577632188796997,
                          0.22068625688552856,
                          1.0829912424087524, -0.062848761677742,
                          1.067043662071228,
                          1.685004711151123,
                          0.42118504643440247, -1.0714980363845825,
                          0.08949100971221924,
                          0.11757903546094894 ],
                      [ -2.050722360610962,
                          1.7426694631576538,
                          2.0413830280303955,
                          0.7538745403289795, -0.5815067887306213, -0.09693184494972229, -1.4147549867630005,
                          0.7600394487380981, -1.2544375658035278, -2.625866174697876,
                          0.23354119062423706, -0.1914345771074295, -0.07644936442375183, -0.16210238635540009,
                          0.19604597985744476, -0.11547994613647461, -0.28342992067337036, -1.6637414693832397, -0.015591274946928024, -0.14196303486824036,
                          0.3230898678302765, -0.4104263484477997,
                          0.3330332934856415,
                          1.5829106569290161 ],
                      [ -2.258330821990967,
                          2.9168264865875244,
                          3.9243175983428955,
                          0.31133559346199036, -2.1699373722076416,
                          0.7104921936988831, -3.48427152633667,
                          1.2820602655410767, -3.8977952003479004, -3.3356447219848633,
                          5.441925525665283,
                          0.08462318032979965,
                          0.020544029772281647, -2.965933322906494,
                          1.7811757326126099,
                          0.8263360857963562,
                          0.7971271872520447,
                          1.373838186264038,
                          0.4048818051815033, -0.33259913325309753,
                          2.289705753326416, -0.33934420347213745,
                          0.8583205938339233,
                          0.651279866695404 ],
                      [ -1.5020519495010376,
                          0.89216548204422, -0.4275498688220978,
                          0.19692836701869965, -0.5208149552345276,
                          0.5953332185745239, -2.1505930423736572,
                          3.899622678756714, -1.8567755222320557, -0.9549842476844788, -5.440749168395996,
                          2.2318954467773438,
                          0.19699068367481232, -1.4333187341690063,
                          1.1136412620544434,
                          2.547720193862915,
                          4.221537113189697, -3.1651740074157715,
                          0.4719099700450897,
                          1.4271198511123657,
                          2.704888105392456, -0.238236665725708,
                          1.0314249992370605,
                          0.8414490818977356 ],
                      [ -1.8775948286056519,
                          1.7075281143188477,
                          1.571075201034546,
                          1.0911353826522827, -2.1109397411346436, -0.31540733575820923, -1.7292910814285278, -0.4022630453109741, -1.6496367454528809, -2.3619680404663086,
                          0.6521572470664978,
                          0.3359260857105255, -0.3612646758556366, -0.9483339786529541,
                          0.3597396910190582,
                          0.5612245798110962,
                          0.226342111825943,
                          0.6331856846809387, -0.13555103540420532, -0.43798166513442993,
                          0.5600048303604126, -0.31657108664512634,
                          0.2218935191631317,
                          0.3006499707698822 ],
                      [ -0.41388288140296936,
                          0.19695012271404266,
                          1.4691286087036133,
                          0.45601052045822144, -2.4728915691375732,
                          0.044861555099487305, -0.13322216272354126, -0.6042797565460205,
                          0.21780739724636078, -2.000786066055298,
                          0.4966203570365906,
                          1.3729523420333862, -0.8302648067474365, -3.769991636276245,
                          1.2857388257980347,
                          2.290609121322632, -0.24414364993572235,
                          1.9972450733184814,
                          3.723629951477051,
                          0.6449107527732849,
                          0.21182848513126373,
                          1.2849743366241455,
                          0.931465208530426,
                          1.9116997718811035 ],
                      [ -1.1158748865127563,
                          1.8408055305480957, -0.9622572660446167, -0.031985264271497726, -1.066011667251587,
                          1.413601040840149, -1.0168803930282593,
                          1.890092372894287, -0.5080335736274719,
                          5.534567356109619, -5.746995449066162,
                          2.2350969314575195, -0.05176318436861038,
                          4.273907661437988,
                          1.283360481262207,
                          1.8470358848571777, -1.766426682472229, -3.8253772258758545, -1.499880313873291, -2.6197001934051514,
                          1.458806037902832,
                          0.4720921218395233,
                          0.4403262138366699,
                          2.4679408073425293 ],
                      [
                          0.04480930045247078,
                          0.8339078426361084, -1.8115708827972412, -1.5193204879760742,
                          0.015298750251531601,
                          1.7022438049316406,
                          0.21679119765758514,
                          3.3697617053985596,
                          0.2024437040090561,
                          1.7034320831298828, -1.72609543800354,
                          2.071091890335083,
                          0.7836435437202454, -3.2408576011657715,
                          1.4890726804733276,
                          1.5591362714767456,
                          0.3379442095756531, -0.06530886888504028, -0.3109951615333557,
                          1.0841126441955566,
                          1.3512604236602783, -0.2031494379043579,
                          0.7989873886108398,
                          0.6633350849151611 ],
                      [ -0.8510960936546326,
                          0.23603355884552002,
                          0.1634630262851715, -1.7054237127304077,
                          0.5283055901527405,
                          0.20523004233837128, -1.2946866750717163,
                          2.0797410011291504, -1.2583324909210205, -0.7519773840904236, -0.6536310911178589, -0.7460823059082031, -0.7029368281364441,
                          2.347499370574951,
                          3.0847299098968506,
                          0.3438556492328644, -0.252351850271225,
                          0.6350343227386475, -1.5558958053588867, -0.8831033110618591, -0.029831811785697937,
                          1.9894261360168457,
                          0.3445390462875366,
                          0.33818548917770386 ],
                      [ -0.5339559316635132,
                          0.8928231596946716,
                          1.0008488893508911, -1.3364529609680176,
                          1.414549469947815,
                          0.3112858235836029, -0.44305408000946045,
                          0.3637634217739105, -0.5030834674835205, -2.808317184448242,
                          1.4675202369689941, -0.9290586113929749,
                          0.4267111122608185, -1.7316951751708984,
                          0.5821006894111633, -0.14829722046852112,
                          1.0051664113998413, -1.3149805068969727,
                          1.6061418056488037,
                          1.4462999105453491,
                          0.9223769903182983, -0.5429674386978149,
                          0.38828977942466736,
                          0.8776643872261047 ],
                      [
                          0.3450602889060974, -0.09113415330648422, -3.695903778076172, -3.4269602298736572, -7.36775016784668,
                          1.8248459100723267, -1.1847814321517944,
                          4.630815505981445, -1.995693564414978,
                          2.84989070892334,
                          5.501564025878906,
                          2.4284956455230713,
                          0.12550228834152222,
                          1.6141636371612549,
                          1.7753617763519287,
                          2.69758939743042, -0.8113027215003967, -3.970346450805664,
                          1.771173119544983,
                          0.489918053150177,
                          2.000002384185791,
                          1.150015115737915,
                          0.17316590249538422,
                          1.8446024656295776 ],
                      [ -1.0019608736038208,
                          0.14539773762226105, -1.0119539499282837,
                          1.2722004652023315,
                          2.895594835281372,
                          1.1293302774429321, -0.6270586252212524,
                          1.720895528793335, -1.057956337928772,
                          0.1121828556060791, -2.400604724884033, -3.1609158515930176,
                          0.09661747515201569, -0.8014721870422363,
                          0.622119665145874,
                          0.4443238079547882,
                          2.1336252689361572,
                          1.854129672050476,
                          0.22698071599006653, -0.4610866606235504,
                          0.12259920686483383, -0.38058245182037354,
                          1.1441899538040161, -0.8709293007850647 ],
                      [ -1.1290363073349,
                          1.1893310546875,
                          1.8431103229522705,
                          1.750382423400879, -1.9349781274795532, -0.2434484362602234, -1.5274749994277954,
                          0.7178627252578735, -1.7198237180709839, -2.3995895385742188,
                          0.6220080256462097,
                          0.8391161561012268, -0.14590074121952057, -0.7433088421821594,
                          0.1111707016825676,
                          0.19222038984298706,
                          0.7395722270011902, -1.0405794382095337,
                          0.3036956787109375,
                          0.47322162985801697,
                          0.753802478313446, -0.37918123602867126,
                          0.003472083481028676, -0.2716069221496582 ],
                      [ -1.3278660774230957,
                          1.3820422887802124,
                          1.4768480062484741,
                          0.23082083463668823, -1.7547224760055542,
                          0.3634960949420929, -1.8828750848770142,
                          0.4440036416053772, -1.6826993227005005, -2.4151434898376465,
                          1.210302472114563,
                          0.8493398427963257,
                          0.019251544028520584, -0.9441574215888977,
                          0.13451313972473145,
                          0.45818525552749634,
                          0.7397533655166626, -1.8077688217163086,
                          0.8003618121147156,
                          0.5828720331192017,
                          0.9612571001052856, -0.6244246363639832,
                          0.2657166123390198,
                          0.1934620589017868 ],
                      [
                          1.815205693244934, -1.5256644487380981,
                          0.20882612466812134, -0.8763066530227661, -0.05777200311422348, -0.009277296252548695,
                          2.374008893966675, -0.9997915029525757,
                          3.1241421699523926, -1.944723129272461, -6.775116443634033,
                          0.16706159710884094,
                          0.33468422293663025, -2.0368258953094482,
                          0.065018430352211,
                          0.8110831379890442, -0.19617357850074768,
                          0.32582104206085205,
                          1.745138168334961,
                          1.2049670219421387,
                          0.4386044144630432, -0.4845178425312042, -0.17180708050727844,
                          0.4923127293586731 ],
                      [ -2.2626700401306152,
                          2.476966142654419, -0.10010255128145218, -0.16794294118881226, -2.6025328636169434,
                          0.34205931425094604, -3.044881820678711,
                          2.388521194458008, -3.7177345752716064, -2.204869508743286,
                          2.3557753562927246,
                          0.737607479095459,
                          0.14283929765224457, -1.3664072751998901,
                          1.659584641456604,
                          0.18326336145401,
                          1.1988059282302856, -2.7358217239379883,
                          0.28053560853004456,
                          0.05368965119123459,
                          1.0988678932189941, -0.8085486888885498,
                          0.4734056293964386,
                          0.5540983080863953 ],
                      [ -0.8237748742103577,
                          0.4261339604854584, -0.009859512560069561,
                          2.1683428287506104, -2.988104820251465,
                          0.37997663021087646, -0.3004935383796692, -3.1558380126953125, -0.553583562374115,
                          3.281179666519165, -0.7314825654029846,
                          4.534816741943359, -0.529656708240509, -5.64798641204834, -2.042598247528076,
                          0.367214173078537,
                          1.750732421875, -2.259132146835327,
                          2.29221248626709, -0.22952055931091309, -0.6315057277679443, -1.5711090564727783, -0.68256676197052,
                          0.27954426407814026 ],
                      [ -1.5044575929641724,
                          1.5184317827224731,
                          0.49311864376068115, -0.4952792525291443, -2.9946229457855225,
                          0.8287169337272644, -3.064532995223999,
                          1.5213322639465332, -2.9591166973114014, -0.8162328600883484,
                          0.4969008266925812,
                          2.0018835067749023, -0.037045709788799286, -1.5868734121322632,
                          0.1798776239156723,
                          1.6843750476837158,
                          1.4093981981277466, -2.401230812072754,
                          0.9851224422454834,
                          0.39983904361724854,
                          2.0584499835968018, -0.6346515417098999,
                          0.24434794485569,
                          0.9655430316925049 ],
                      [ -0.5792518258094788,
                          2.2195467948913574,
                          2.15594220161438,
                          3.573192834854126,
                          1.1275160312652588,
                          0.793242871761322, -0.4606023132801056,
                          2.9397947788238525, -1.2501564025878906, -4.161862373352051, -3.6538619995117188,
                          1.1518681049346924,
                          0.5272271037101746,
                          1.8274480104446411,
                          2.4252214431762695, -0.07444434612989426,
                          1.854947805404663,
                          1.1578357219696045, -2.5263671875, -0.21950961649417877, -0.203915536403656, -0.5046757459640503,
                          1.4480520486831665, -0.9182049632072449 ],
                      [ -0.8701704144477844,
                          1.1195182800292969,
                          2.676037073135376,
                          2.152432918548584, -0.8459340929985046, -0.5565235018730164, -1.7988687753677368,
                          0.5673004388809204, -2.3440005779266357, -2.125368356704712,
                          1.7158900499343872, -0.10002725571393967, -0.11406810581684113, -0.995364785194397,
                          1.0778015851974487,
                          0.07325075566768646,
                          1.3068335056304932,
                          0.1520901620388031,
                          0.11555531620979309, -0.21097713708877563,
                          0.47154638171195984,
                          0.024094175547361374,
                          0.3300081789493561, -0.7122173309326172 ],
                      [ -2.665581703186035,
                          1.2109719514846802,
                          0.4039445221424103,
                          0.6068089008331299, -1.6982587575912476, -0.4066373109817505, -5.234631061553955,
                          0.05769582837820053, -4.912146091461182,
                          1.1697114706039429, -0.4746719300746918,
                          2.064314365386963, -0.11621659249067307,
                          0.2711319625377655,
                          0.501684844493866,
                          4.028212547302246,
                          0.7246331572532654, -1.5909761190414429,
                          0.022182496264576912, -0.4374062418937683,
                          2.839665651321411,
                          0.7187106609344482,
                          1.0913671255111694,
                          2.0480146408081055 ],
                      [
                          0.7918554544448853, -1.158499836921692, -1.3643889427185059, -3.5303478240966797,
                          0.3828728199005127,
                          1.2083542346954346, -0.6709098815917969,
                          2.313598871231079, -1.13423752784729,
                          2.733430862426758, -2.1757240295410156,
                          0.16584981977939606,
                          0.5140942931175232, -2.83303165435791,
                          2.7416951656341553, -0.11431192606687546, -1.1530086994171143, -3.619774341583252,
                          2.35786509513855,
                          2.1569533348083496,
                          0.623696506023407, -1.6281408071517944,
                          0.025380702689290047,
                          0.17023171484470367 ],
                      [ -0.916641354560852,
                          0.822573721408844,
                          0.6929358839988708, -1.7354496717453003, -0.01843707263469696,
                          0.39825505018234253, -1.1459680795669556,
                          0.7151502966880798, -0.9197421073913574, -0.2588212192058563,
                          0.13534201681613922, -1.1731224060058594, -0.1210445836186409,
                          0.881632387638092,
                          0.4585050642490387, -0.5029560923576355, -0.4933943450450897, -1.7416595220565796, -0.12801934778690338, -0.3693416714668274,
                          0.11600690335035324, -0.16402560472488403,
                          0.24561795592308044,
                          1.9854851961135864 ],
                      [ -3.202559232711792,
                          3.547966241836548,
                          1.2102268934249878, -1.889824390411377, -3.202280044555664,
                          0.44104892015457153, -4.427806377410889,
                          2.9246718883514404, -5.231522083282471, -1.7540465593338013,
                          5.193145275115967,
                          0.15020349621772766, -0.11659769713878632, -0.009779325686395168,
                          2.299494981765747,
                          2.1986231803894043,
                          0.19856683909893036, -0.8282930254936218, -0.8212699294090271, -1.0744158029556274,
                          3.196481227874756, -0.25888845324516296,
                          0.4440397322177887,
                          1.981406807899475 ]
                  ],
                  "biases": [
                      -0.12963660061359406,
                      -1.1368705034255981,
                      -0.8345873355865479,
                      0.4551926851272583,
                      -1.1247773170471191,
                      0.560722291469574,
                      -1.3961763381958008,
                      -0.39893820881843567,
                      -1.588643193244934,
                      0.46882364153862,
                      0.5417724847793579,
                      -0.8758296370506287,
                      -0.5443574786186218,
                      -0.5144757628440857,
                      2.1104891300201416,
                      -1.3328529596328735,
                      0.003329788101837039,
                      -0.3495350480079651,
                      0.12654545903205872,
                      -0.46320804953575134,
                      -1.3208425045013428,
                      0.6395053267478943,
                      -1.1480588912963867,
                      -2.2215523719787598
                  ]
              },
              {
                  "weights": [
                      [
                          2.620971918106079, -2.045956611633301,
                          0.29805219173431396,
                          0.8864457011222839,
                          0.5844332575798035, -1.751920461654663,
                          5.414331912994385,
                          1.7102528810501099,
                          0.4136602580547333,
                          0.958812952041626, -7.33172082901001,
                          4.110222816467285, -1.1311042308807373, -1.1758038997650146, -0.9414340257644653, -2.0407519340515137, -5.102668285369873, -1.8323285579681396,
                          2.7151107788085938, -1.116551160812378, -0.9834963083267212,
                          0.5586211085319519,
                          0.14127646386623383,
                          1.2672301530838013 ],
                      [ -0.4728730618953705, -0.47347772121429443,
                          0.11759290099143982, -0.522071897983551, -1.7541435956954956,
                          0.48665618896484375, -3.469282627105713,
                          0.9061005711555481,
                          0.27079224586486816,
                          0.6542325615882874, -0.9445424675941467,
                          0.7002251148223877, -1.2962534427642822, -0.673044741153717, -0.9332970976829529, -0.25559669733047485, -1.5661693811416626,
                          0.23459558188915253,
                          0.7822743058204651, -0.1551388055086136,
                          0.9037052392959595,
                          0.5748949646949768, -0.039255235344171524, -0.2974388301372528 ],
                      [ -1.0534406900405884, -0.11033006757497787, -0.7760812044143677,
                          0.764885425567627, -0.8319984078407288,
                          1.8523911237716675, -5.667043685913086,
                          1.6367944478988647, -0.010011429898440838,
                          2.324094772338867, -1.1269779205322266, -1.1331883668899536, -1.2596943378448486, -0.716240644454956, -0.8348947763442993, -0.9787037968635559,
                          0.5963625311851501,
                          0.005834280513226986, -0.5457814931869507,
                          0.6951976418495178,
                          3.0020644664764404,
                          0.2231258749961853,
                          0.6295551657676697, -0.5885822176933289 ],
                      [ -0.07481757551431656, -0.20482096076011658, -0.608754575252533, -0.5030227899551392, -0.40115979313850403, -0.47755491733551025, -0.10899072140455246, -0.35566970705986023, -0.05484453961253166, -0.29767096042633057, -0.4169882833957672, -0.43653494119644165, -0.14861853420734406, -0.06589125096797943, -0.7919699549674988, -0.26865825057029724, -0.5942344069480896,
                          0.06022852659225464, -0.3126070499420166, -0.38973376154899597,
                          0.254926472902298, -0.570009171962738,
                          0.08287334442138672, -0.49866706132888794 ],
                      [ -2.0184414386749268, -0.12982788681983948,
                          0.2238071858882904,
                          0.6785321831703186, -0.9942888617515564,
                          1.3149282932281494, -2.5972251892089844, -0.4783441424369812, -1.6210931539535522,
                          0.8176229000091553,
                          3.0372819900512695, -1.3210378885269165, -1.0486770868301392, -1.3698499202728271, -0.7139929533004761, -1.534651517868042, -1.1852426528930664, -1.7647892236709595, -1.6945924758911133, -0.6005029082298279,
                          0.344894677400589,
                          0.9944174885749817, -0.12256298214197159, -1.269496202468872 ],
                      [ -1.8250116109848022,
                          1.230837106704712,
                          2.661252737045288,
                          2.226165294647217, -1.8223508596420288,
                          0.36242446303367615,
                          2.1245710849761963,
                          0.9328014254570007,
                          1.4648627042770386, -0.36486726999282837,
                          7.699931621551514, -2.0584421157836914, -2.3020434379577637, -1.8222050666809082, -3.2598025798797607, -3.5601301193237305, -2.0970094203948975, -3.3967950344085693, -3.491265058517456, -0.8636069297790527,
                          1.4553859233856201,
                          5.5562944412231445,
                          2.2388429641723633, -0.003529074601829052 ],
                      [
                          0.7436375617980957, -0.08296588063240051,
                          0.3654783368110657, -0.5254926681518555, -0.8406715989112854, -1.0937066078186035, -2.8327274322509766, -0.4675684869289398,
                          0.19198469817638397, -0.3034662902355194, -2.4850735664367676, -0.20885436236858368,
                          0.016499480232596397,
                          0.06703201681375504, -0.20564411580562592, -0.05936167389154434, -1.7305293083190918,
                          0.6593496203422546,
                          1.0865442752838135,
                          0.15665830671787262,
                          0.40503135323524475,
                          0.6388824582099915,
                          0.19073690474033356, -0.5400791168212891 ],
                      [ -0.29914119839668274, -0.4485922157764435, -0.6579878926277161, -1.316331386566162, -0.6372374892234802, -1.8051912784576416,
                          1.8542770147323608, -0.5842695832252502, -0.6774830222129822, -0.436474472284317, -0.7360110878944397, -0.08750159293413162, -0.4520219564437866, -0.22092188894748688, -0.8567717671394348, -0.5726965665817261, -0.9913395643234253, -0.13693936169147491,
                          0.25833335518836975, -0.5173819065093994,
                          0.05237804725766182, -1.7328556776046753, -0.1253550797700882, -0.1846032291650772 ],
                      [ -0.47197696566581726, -0.15132200717926025, -0.6880190968513489, -2.19838809967041, -0.5430475473403931, -0.25578826665878296, -1.3601099252700806, -0.10965986549854279, -0.5651394128799438, -0.5966790318489075, -0.1384776532649994, -1.262027382850647, -0.4620390832424164, -0.15222589671611786, -0.5524082183837891, -0.5782226920127869, -0.8907256126403809,
                          0.5932188034057617, -0.5615483522415161, -0.2407383918762207,
                          1.8811206817626953, -0.08723677694797516,
                          0.067897267639637, -0.744204580783844 ],
                      [
                          1.0631277561187744,
                          0.19327610731124878, -3.149048328399658,
                          2.024346113204956,
                          0.956632673740387, -1.5903422832489014,
                          7.212871551513672, -0.4206461012363434, -1.3831347227096558, -0.16353066265583038,
                          4.5338616371154785, -1.2239233255386353,
                          0.09301982820034027, -0.7578524947166443,
                          2.8381335735321045,
                          2.2122981548309326,
                          3.776289463043213, -0.019087152555584908,
                          0.20852531492710114, -0.4082658588886261, -1.8704631328582764, -3.71924090385437, -1.5846483707427979, -3.233062505722046 ],
                      [ -0.5575005412101746,
                          0.049112409353256226, -0.30499643087387085, -4.033062934875488, -0.6806607246398926, -0.7242943644523621, -1.3979675769805908, -0.20563113689422607, -0.8663718104362488, -0.7280355095863342,
                          4.1683878898620605, -0.9514463543891907, -0.663503110408783,
                          0.49644702672958374, -1.0445855855941772, -0.42429763078689575, -1.829221487045288,
                          1.8312522172927856, -1.5460546016693115,
                          0.20140764117240906,
                          4.865108013153076, -0.42143526673316956, -0.06485869735479355, -0.8729780316352844 ],
                      [ -0.6782175898551941,
                          2.482381820678711, -2.007800340652466, -2.6506974697113037,
                          0.8582520484924316, -1.6512449979782104,
                          3.5007495880126953, -1.4607347249984741,
                          0.3949093520641327,
                          0.6967273354530334,
                          2.115100145339966, -0.7270818948745728, -0.5444923639297485,
                          0.1509469449520111, -1.6920424699783325, -0.7637618780136108,
                          0.06026144325733185,
                          0.9624010324478149, -1.164943814277649, -0.31078460812568665,
                          5.289393424987793, -3.743297815322876,
                          1.9016674757003784, -1.8589272499084473 ],
                      [ -0.751211404800415, -0.9332833290100098, -0.7349479794502258, -0.3763381242752075, -0.3212011754512787, -2.8221981525421143,
                          6.304018497467041,
                          0.10258074849843979,
                          1.848617434501648, -2.1410183906555176,
                          0.12926390767097473,
                          1.5174461603164673, -1.2762056589126587, -1.3902392387390137, -4.450438499450684, -0.8528392910957336, -1.3193202018737793, -1.5045043230056763,
                          4.940364360809326, -1.263056755065918,
                          0.9727587103843689,
                          0.8816463947296143, -0.26127803325653076,
                          0.14127466082572937 ],
                      [
                          1.023596167564392,
                          0.1820267289876938, -1.1671817302703857,
                          1.3954061269760132, -0.4436204731464386,
                          1.8121622800827026, -6.10546350479126,
                          2.2644662857055664, -0.7597482800483704,
                          2.9786641597747803, -1.4024730920791626, -0.10137564688920975, -0.6181738376617432,
                          0.054058562964200974,
                          1.1774674654006958, -2.1704039573669434, -0.5779404044151306, -1.158213496208191, -0.04868635535240173, -0.17574062943458557, -2.24422287940979, -0.8723392486572266,
                          0.22403821349143982, -1.7732901573181152 ],
                      [
                          0.2687545120716095, -0.2587597668170929, -0.9886941909790039,
                          0.9029861092567444, -1.1198397874832153,
                          1.4563857316970825, -1.0232038497924805, -2.337211847305298, -0.9676564931869507,
                          2.172776699066162,
                          0.08735034614801407,
                          1.250124454498291, -0.07045891880989075,
                          0.9076252579689026, -0.42484936118125916,
                          0.43404749035835266,
                          1.4993845224380493,
                          0.025869350880384445, -2.470493793487549, -0.7003798484802246, -0.27062004804611206,
                          2.870408296585083, -0.3928801417350769, -2.270430326461792 ],
                      [ -0.331635445356369, -0.16488362848758698, -0.8715172410011292, -0.3738214373588562, -0.42588773369789124, -1.4455924034118652,
                          2.373779773712158,
                          0.6021754741668701, -1.1963648796081543, -0.6946554780006409, -1.294150471687317,
                          0.3615324795246124, -0.28565213084220886, -0.3273158371448517, -0.14976929128170013, -0.3321671783924103, -1.581229567527771, -0.4110790491104126,
                          0.5647501945495605, -0.5711877942085266, -0.3936895430088043, -1.8933124542236328, -0.30409756302833557, -0.7465827465057373 ],
                      [ -0.7869478464126587, -0.8325909376144409, -1.6334155797958374,
                          3.3451905250549316, -0.955018162727356, -3.183856725692749,
                          2.0982956886291504,
                          0.010846719145774841, -0.15279097855091095, -2.2377769947052,
                          4.216722011566162, -1.5717381238937378, -0.5915240049362183, -0.8081547021865845,
                          1.7234729528427124, -1.2763713598251343,
                          4.49243688583374,
                          0.36603519320487976,
                          0.7052172422409058,
                          0.23885700106620789, -0.1300605684518814, -1.1770210266113281, -0.5694762468338013, -2.2758257389068604 ],
                      [ -0.4016799330711365, -0.030360208824276924, -0.3838244080543518, -1.6703053712844849, -0.5877431631088257, -0.43109917640686035,
                          2.051762580871582, -0.5880883932113647, -0.46995019912719727, -0.6171161532402039, -0.2609051764011383, -1.0000239610671997, -0.19922783970832825, -0.01671862043440342, -1.2448859214782715, -0.21869181096553802,
                          0.22651886940002441,
                          0.07914808392524719, -0.5483450889587402,
                          0.09348761290311813,
                          1.8554465770721436, -0.7073646783828735, -0.09392251074314117, -0.7015888690948486 ],
                      [ -1.0673259496688843, -0.3141440153121948,
                          1.0282938480377197,
                          0.39773285388946533, -0.468912273645401, -1.3257843255996704,
                          4.625457286834717, -1.7559962272644043,
                          0.24604295194149017, -0.7816163897514343,
                          0.17025956511497498,
                          0.15899285674095154,
                          0.20038174092769623, -0.382840633392334, -3.7972238063812256,
                          0.8071175813674927, -2.0234477519989014, -0.2880677580833435,
                          1.194209337234497,
                          1.3605579137802124,
                          1.7327144145965576, -3.0422608852386475, -0.29770705103874207,
                          0.8571300506591797 ],
                      [
                          0.04536100849509239,
                          0.09952475875616074, -0.5818548798561096, -0.647887110710144, -0.1594732701778412, -0.25715339183807373, -0.6818634867668152, -0.26366671919822693,
                          0.08281932771205902, -0.10092242807149887, -0.6498836874961853, -0.40597662329673767, -0.15190017223358154, -0.34717822074890137, -0.5282369256019592, -0.2631007432937622, -0.4433915615081787,
                          0.03280613198876381,
                          0.023388750851154327, -0.2766443192958832,
                          0.3258573114871979, -0.4864502251148224, -0.13143648207187653, -0.815123438835144 ],
                      [ -0.44785454869270325, -0.5841233730316162, -1.1640276908874512, -1.4629062414169312, -0.4380967617034912, -0.43372443318367004,
                          3.3935670852661133,
                          1.2161813974380493, -1.3308000564575195, -1.1208995580673218, -3.215258836746216,
                          1.3572343587875366, -0.48340609669685364, -0.319191575050354, -1.4728235006332397, -0.6807540059089661, -2.0937187671661377, -0.8209579586982727,
                          2.388319253921509, -0.726917028427124, -0.8494369387626648, -3.3342108726501465, -0.5068190693855286, -0.7782211899757385 ],
                      [
                          0.4228360056877136,
                          0.6116538643836975, -0.4688311517238617,
                          0.6378955841064453, -0.6134097576141357, -1.289408802986145, -2.1285996437072754,
                          0.43173331022262573,
                          1.8059594631195068,
                          0.6154515743255615, -2.7165682315826416,
                          1.0415762662887573,
                          0.08638468384742737, -0.46247559785842896,
                          0.6915397644042969,
                          0.23365724086761475,
                          0.307488352060318,
                          1.0141392946243286,
                          0.7284232974052429,
                          0.12819181382656097,
                          0.2636794149875641, -0.09334961324930191, -0.09355264902114868, -0.007103177718818188 ],
                      [ -0.6291504502296448, -0.2533705532550812, -1.4097673892974854,
                          1.1945059299468994, -0.6553818583488464, -3.1956369876861572,
                          4.267984390258789,
                          0.1503835916519165, -0.9164207577705383, -0.08763404935598373, -1.6708709001541138,
                          0.21461032330989838, -0.5408536791801453, -0.47529336810112, -0.5825572609901428, -0.5622012615203857, -8.204327583312988, -1.7415553331375122,
                          2.1415958404541016, -1.1314748525619507, -1.216304898262024, -0.20051993429660797, -0.3061702251434326, -1.516717553138733 ],
                      [
                          0.37482890486717224, -0.379329651594162, -5.594509124755859,
                          2.754441499710083, -0.46792158484458923,
                          5.4930291175842285, -0.8869842290878296,
                          3.073460578918457,
                          0.8599833846092224,
                          0.7517163753509521,
                          0.94352787733078,
                          0.39801639318466187,
                          0.15542063117027283, -0.871268093585968,
                          4.8576202392578125, -2.7008109092712402,
                          2.1289806365966797, -1.9452340602874756, -0.5272453427314758, -1.2944941520690918,
                          0.9837901592254639,
                          0.9558780789375305, -0.2950126528739929, -5.999824047088623 ]
                  ],
                  "biases": [
                      0.8437404036521912,
                      0.26990777254104614,
                      -0.31834661960601807,
                      -0.5984534621238708,
                      1.5306614637374878,
                      -3.5212290287017822,
                      0.26982438564300537,
                      -0.4482021629810333,
                      -0.25898340344429016,
                      -1.7768678665161133,
                      0.2538246810436249,
                      0.49219223856925964,
                      -2.372884511947632,
                      1.5054866075515747,
                      -0.9753989577293396,
                      -0.8373351693153381,
                      -1.218930721282959,
                      0.05120709538459778,
                      -2.039330244064331,
                      -0.6642180681228638,
                      0.06695844233036041,
                      0.08082421869039536,
                      -0.3387877643108368,
                      -3.9664783477783203
                  ]
              },
              {
                  "weights": [
                      [ -6.412782669067383,
                          1.109114646911621,
                          1.1047232151031494,
                          0.6952170133590698,
                          2.641810894012451,
                          6.449770927429199,
                          0.8633847236633301,
                          1.8849987983703613,
                          0.9970172643661499, -1.6663858890533447,
                          2.501215696334839,
                          4.657593250274658,
                          6.8607940673828125, -3.1063363552093506,
                          5.291451454162598,
                          0.5892135500907898, -4.627492904663086,
                          2.3964829444885254,
                          3.6232173442840576,
                          0.5573372840881348,
                          3.098498582839966, -1.0526686906814575,
                          2.687451124191284, -5.489343166351318 ],
                      [
                          0.7365025281906128, -1.9723682403564453,
                          4.739341735839844,
                          0.31819069385528564,
                          2.5767765045166016,
                          7.386195182800293,
                          1.5880088806152344,
                          1.7179185152053833,
                          1.62039315700531, -3.32232666015625,
                          4.490079879760742,
                          4.640164852142334, -1.294934630393982,
                          3.6718177795410156, -0.34579694271087646,
                          2.3624107837677, -4.612084865570068, -0.5037304759025574, -4.92021369934082, -0.048343922942876816,
                          3.6214101314544678, -1.3324799537658691,
                          7.673370361328125, -5.551858425140381 ],
                      [ -9.468825340270996,
                          1.6533873081207275,
                          2.661040782928467,
                          0.6180945634841919,
                          4.062886714935303,
                          1.558261513710022,
                          2.897857427597046,
                          0.26869118213653564,
                          1.4509145021438599, -5.899406909942627,
                          0.9323466420173645,
                          4.652801513671875, -4.554965496063232, -4.719470500946045,
                          2.7135558128356934, -1.4981733560562134,
                          0.19966630637645721,
                          1.353567123413086,
                          0.12515674531459808,
                          0.733527421951294, -3.1433346271514893,
                          4.4187912940979, -2.7658519744873047, -8.087271690368652 ]
                  ],
                  "biases": [
                      -1.37704598903656,
                      -4.459033012390137,
                      7.200288772583008
                  ]
              }
          ],
          "inputLookup": {
              "rojo": 0,
              "verde": 1,
              "azul": 2
          },
          "inputLookupLength": 3,
          "outputLookup": {
              "rojo": 0,
              "verde": 1,
              "azul": 2
          },
          "outputLookupLength": 3,
          "options": {
              "inputSize": 0,
              "outputSize": 0,
              "binaryThresh": 0.5,
              "hiddenLayers": [
                  24,
                  24,
                  24,
                  24
              ]
          },
          "trainOpts": {
              "activation": "sigmoid",
              "iterations": 500000,
              "errorThresh": 0.0005,
              "log": true,
              "logPeriod": 1000,
              "leakyReluAlpha": 0.01,
              "learningRate": 0.1,
              "momentum": 0.1,
              "callbackPeriod": 10,
              "timeout": "Infinity",
              "beta1": 0.9,
              "beta2": 0.999,
              "epsilon": 1e-8
          }
        }
        
        // Now that brain.js is loaded, we can use it to create a neural network
        const network = new brain.NeuralNetwork();
        network.fromJSON(trainingData)
        
        console.log(network,trainingData)
        setNetwork(network); // Update the state with the trained network
      }

      initNetwork();
    }
  }, [brainLoaded, setNetwork]);

  return (
    <>
      <Script
        src="7/brain.js"
        strategy="lazyOnload"
        onLoad={() => {
          console.log("brain.js loaded");
          setBrainLoaded(true); // Set state when brain.js is loaded
        }}
      />
    </>
  );
}
