{
  "type": "NeuralNetwork",
  "sizes": [3, 30, 30, 30, 30, 30, 3],
  "layers": [
    {
      "weights": [],
      "biases": []
    },
    {
      "weights": [
        [1.9807974100112915, -19.887638092041016, 16.178722381591797],
        [-8.728008270263672, -5.08298921585083, -5.696298599243164],
        [-10.154922485351562, 7.50433349609375, 2.1746933460235596],
        [-16.398157119750977, -3.0147759914398193, 19.602462768554688],
        [-2.2256622314453125, -2.323306083679199, -0.36522582173347473],
        [-6.131850242614746, -3.7194747924804688, 0.07913108170032501],
        [1.0151631832122803, -0.624080240726471, -1.6626948118209839],
        [-1.4450230598449707, -1.7794408798217773, 22.768754959106445],
        [-3.9502906799316406, -4.965707302093506, 0.4793713688850403],
        [0.4724532663822174, 7.383957386016846, 3.3495190143585205],
        [1.6966944932937622, 5.648081302642822, 0.28478899598121643],
        [4.914116382598877, 4.725528717041016, -4.138974189758301],
        [-3.2399990558624268, -3.0618696212768555, -0.5526328682899475],
        [-0.6466570496559143, -0.35429778695106506, -0.6082188487052917],
        [-3.3362858295440674, -2.6284971237182617, -9.468731880187988],
        [-4.278448581695557, -4.307258129119873, 0.09238168597221375],
        [-0.14216746389865875, 7.254874229431152, 4.281827449798584],
        [1.8682925701141357, 3.744945526123047, -3.437009811401367],
        [-3.723231792449951, -4.212076663970947, -0.5963116884231567],
        [2.734668493270874, 3.4765965938568115, -5.447159767150879],
        [6.286868572235107, 4.48417854309082, 5.602003574371338],
        [-7.740261077880859, 4.908836364746094, 2.0925445556640625],
        [-0.794315755367279, -0.8469765186309814, -0.9604111313819885],
        [-3.7756805419921875, 2.804189682006836, 0.13517168164253235],
        [-0.8536470532417297, 7.139633655548096, 4.357086181640625],
        [-4.53022575378418, -5.570273399353027, 0.09480453282594681],
        [-0.7599506974220276, 5.553036689758301, 3.657280683517456],
        [4.762425899505615, 5.371424674987793, 0.9722980856895447],
        [4.616912841796875, 7.667119026184082, 3.8318395614624023],
        [-1.9962002038955688, -1.9629231691360474, -0.3331937789916992]
      ],
      "biases": [
        -0.5701228380203247, 6.652052402496338, 0.123048335313797,
        -0.7929354310035706, -0.6918837428092957, 0.13885445892810822,
        -0.8273721933364868, -1.3411945104599, 0.4965907633304596,
        -6.8665361404418945, -2.2736785411834717, -1.3986490964889526,
        -0.1314893364906311, -2.4149272441864014, 3.835533618927002,
        0.303175151348114, -6.2310686111450195, -2.1278347969055176,
        0.41498899459838867, -1.799387812614441, -7.635692119598389,
        -1.0484211444854736, -1.4654279947280884, -2.175717830657959,
        -5.880541801452637, 0.7900331020355225, -4.880387783050537,
        -5.041121482849121, -5.923923492431641, -0.8941537141799927
      ]
    },
    {
      "weights": [
        [
          7.341616153717041, -4.0009613037109375, 0.5306355953216553,
          10.139451026916504, 0.8611875176429749, 2.4644224643707275,
          -0.7504450678825378, 3.9570207595825195, 2.7385377883911133,
          -1.259922981262207, -3.4668900966644287, -5.835968494415283,
          1.4745509624481201, -0.16629132628440857, -4.031815052032471,
          2.3095109462738037, -1.062044620513916, -3.0319745540618896,
          2.3269972801208496, -3.660388708114624, -1.9552942514419556,
          1.6399205923080444, -0.23666499555110931, 0.4323447346687317,
          -0.5645006895065308, 3.139862060546875, -0.4336588978767395,
          -3.3734471797943115, -2.238218307495117, 0.7592466473579407
        ],
        [
          1.6983566284179688, -3.5281031131744385, 0.84560626745224,
          6.302154541015625, 0.25743067264556885, 0.7370175123214722,
          -0.08688399195671082, 7.928435325622559, 0.5549200773239136,
          0.38980036973953247, 0.722370445728302, 0.5537278056144714,
          0.2594650685787201, -0.7196612358093262, -4.316662311553955,
          0.5151888132095337, 0.6823716759681702, 0.28380653262138367,
          0.2429688423871994, 0.3039233684539795, 1.1859428882598877,
          0.5182600617408752, 0.25586241483688354, -0.24431824684143066,
          0.8805935978889465, 0.1531561017036438, 0.9915872812271118,
          0.5308718085289001, 0.26027947664260864, 0.23694339394569397
        ],
        [
          9.530734062194824, -2.307647466659546, -0.5905365943908691,
          4.009215354919434, 0.7022092938423157, 1.643020510673523,
          -0.32645219564437866, 3.874645233154297, 1.9060940742492676,
          -0.9119753837585449, -0.7824518084526062, -1.5801888704299927,
          0.9346943497657776, -0.5193794369697571, -3.5551018714904785,
          1.6284257173538208, -0.9223461151123047, -1.3714412450790405,
          1.2415187358856201, -1.9917305707931519, -0.1998525708913803,
          -0.2520173192024231, 0.056905318051576614, -0.9779451489448547,
          -0.9106094241142273, 1.8975938558578491, -0.3383948802947998,
          0.1170324757695198, -0.8315562009811401, 0.48004773259162903
        ],
        [
          2.8188655376434326, -2.655435562133789, -0.6364743113517761,
          0.19676916301250458, -0.059610966593027115, -0.01220279186964035,
          -0.4936467707157135, 0.40876442193984985, 0.011869455687701702,
          0.6591322422027588, 0.35927942395210266, 0.11213411390781403,
          -0.32843872904777527, -0.2470378279685974, -1.778123378753662,
          -0.1679372787475586, 1.3936630487442017, -0.2880415618419647,
          -0.43026024103164673, -0.6747841835021973, 0.6375746726989746,
          0.0555083230137825, -0.36108899116516113, -0.21575023233890533,
          1.3278238773345947, -0.4309503138065338, 0.6786470413208008,
          0.23158389329910278, 1.006630539894104, -0.08705481141805649
        ],
        [
          6.463171005249023, 0.2794932723045349, -1.9997434616088867,
          -3.1643645763397217, -0.1380591243505478, -1.0104639530181885,
          -0.1505720615386963, 4.974703311920166, -0.6710606217384338,
          -0.09682424366474152, -1.6253589391708374, 0.6538693308830261,
          -0.4973287880420685, -0.35766613483428955, -2.566636562347412,
          -0.7205443978309631, -0.20704229176044464, -1.1128274202346802,
          -0.49230411648750305, -0.9148393869400024, -0.7618005871772766,
          -0.7724733948707581, -0.154659241437912, -1.0626544952392578,
          -0.10302771627902985, -0.9404880404472351, -0.3162577450275421,
          -0.890083909034729, -1.099118947982788, 0.0042842379771173
        ],
        [
          -1.038301706314087, -2.6952104568481445, 1.3819648027420044,
          -0.8470521569252014, -0.5723008513450623, -1.0832674503326416,
          -0.2834134101867676, -0.6787161231040955, -0.7681497931480408,
          2.082089900970459, 1.2442010641098022, 1.6810271739959717,
          -0.9685152173042297, -0.4035368859767914, -2.456465244293213,
          -0.8696315884590149, 1.9521211385726929, 0.9226365685462952,
          -1.3689719438552856, 0.9374434351921082, 2.883683204650879,
          0.7781924605369568, -0.5013341307640076, -0.004419118631631136,
          2.0789101123809814, -0.9882869124412537, 1.5110869407653809,
          1.8418983221054077, 2.5466489791870117, -0.9243792295455933
        ],
        [
          -1.0481503009796143, -2.639557123184204, 2.2843759059906006,
          7.516587257385254, 0.9182974696159363, 1.6980584859848022,
          -0.8459697961807251, 3.5786404609680176, 1.245237112045288,
          -0.9889702796936035, 0.5141583681106567, -0.4502323567867279,
          1.2271289825439453, -0.437478631734848, -2.8055715560913086,
          1.1563169956207275, -1.1312898397445679, -2.1003220081329346,
          1.363687515258789, -3.545677900314331, 0.07889250665903091,
          1.8380376100540161, 0.1178641989827156, 0.9330266714096069,
          -1.0838559865951538, 1.3978993892669678, 0.7985092401504517,
          -0.013056213036179543, 1.1902464628219604, 0.7592976093292236
        ],
        [
          -6.386165618896484, 3.092538356781006, -0.09170513600111008,
          -5.20458984375, -0.6532701849937439, -1.2631065845489502,
          0.7830830216407776, 0.03525669500231743, -1.4001102447509766,
          -0.4864695370197296, -0.41741660237312317, 1.867236852645874,
          -0.9533756375312805, 0.311741441488266, 2.532710313796997,
          -1.1279557943344116, -0.8463002443313599, 1.1394965648651123,
          -0.9652259945869446, 2.1770131587982178, 0.15742668509483337,
          0.3366476893424988, 0.2815479338169098, 0.4725768268108368,
          -1.6408722400665283, -1.5189619064331055, -1.7586719989776611,
          0.25206252932548523, 0.19996954500675201, -0.5856269001960754
        ],
        [
          -1.4558067321777344, -2.59649658203125, 0.8685359358787537,
          -1.5587575435638428, -0.7830851078033447, -0.726787805557251,
          -0.4836105704307556, -1.6668580770492554, -0.791894793510437,
          1.9704210758209229, 0.685585081577301, 1.2755249738693237,
          -1.0702136754989624, -0.07167663425207138, -2.4188618659973145,
          -0.7201330065727234, 1.8667972087860107, 0.6976488828659058,
          -1.0620938539505005, 0.9895498156547546, 2.5823006629943848,
          0.5678032040596008, -0.4501629173755646, 0.19866687059402466,
          1.8849774599075317, -1.0659116506576538, 1.3959190845489502,
          1.5484364032745361, 1.8783174753189087, -0.5373088717460632
        ],
        [
          0.6995955109596252, 0.5231680274009705, -0.6831028461456299,
          -0.22750449180603027, 0.2333143949508667, -0.17286330461502075,
          0.1635722666978836, -0.3297642767429352, 0.03588349372148514,
          -0.24042916297912598, -0.7170019149780273, -0.8004473447799683,
          -0.002971355803310871, 0.02669442445039749, -0.22502127289772034,
          0.1547287404537201, -0.4068661034107208, -0.6188234090805054,
          0.12369794398546219, -0.34754788875579834, -0.26090335845947266,
          -0.5944050550460815, 0.08250083774328232, -0.2696148157119751,
          -0.4699915945529938, 0.27502864599227905, -0.270184725522995,
          -0.23829752206802368, -0.293120801448822, -0.10556063055992126
        ],
        [
          -3.3922581672668457, -0.44763416051864624, 1.1015955209732056,
          0.17010454833507538, -0.41050687432289124, -0.6359646916389465,
          -0.2530551254749298, -3.6286072731018066, -0.3732324242591858,
          0.4535289704799652, 0.5946645736694336, 0.20693373680114746,
          -0.7525399923324585, -0.10347960889339447, -0.4790385365486145,
          -0.5548526644706726, 0.459001749753952, 1.0783536434173584,
          -0.6145372986793518, 1.38874089717865, 0.08751514554023743,
          1.0270222425460815, -0.0772230476140976, 0.8130926489830017,
          0.533530592918396, -0.36985793709754944, 0.2841944098472595,
          0.06859449297189713, 0.585117757320404, -0.3163612484931946
        ],
        [
          2.3318328857421875, 0.5393462777137756, -3.2014646530151367,
          -7.088334083557129, -0.25807130336761475, -0.8440068364143372,
          1.0221508741378784, 3.6994102001190186, -0.4727923274040222,
          0.27227357029914856, 0.603727400302887, 2.1422362327575684,
          -0.3886565566062927, -0.21370449662208557, 0.6061608791351318,
          -0.440453439950943, -0.16668421030044556, 0.8183375597000122,
          -0.484455406665802, 1.0244883298873901, -0.8906829953193665,
          -3.2837893962860107, 0.34345823526382446, -1.803680419921875,
          0.006043130066245794, -0.4532678425312042, -0.051381923258304596,
          -1.7492928504943848, -1.3220958709716797, 0.021998656913638115
        ],
        [
          -3.569281816482544, -0.24826344847679138, 3.974175453186035,
          1.0748356580734253, -0.38273680210113525, -1.0076165199279785,
          -0.3872177302837372, -0.8470412492752075, -0.43873968720436096,
          -0.3359435796737671, 0.12460178136825562, -0.3478066027164459,
          -0.5907386541366577, 0.21243605017662048, 0.16963116824626923,
          -0.503531277179718, 0.02539505437016487, 0.094956174492836,
          -0.7453137040138245, 0.23100437223911285, -0.48825180530548096,
          2.4847984313964844, -0.048328690230846405, 1.3619970083236694,
          -0.23692458868026733, -0.48656854033470154, -0.05744040757417679,
          -0.7291764616966248, 0.4083477258682251, -0.13020338118076324
        ],
        [
          1.101270318031311, -1.4088566303253174, -1.2033864259719849,
          -0.14844849705696106, -0.6182101368904114, -0.8675985336303711,
          -0.46910908818244934, -3.5875537395477295, -1.206262469291687,
          1.049509882926941, 0.9140996932983398, 1.1014032363891602,
          -0.7215545773506165, -0.3763240575790405, -0.19714735448360443,
          -0.815916895866394, 1.2266020774841309, 1.2412476539611816,
          -0.9372796416282654, 1.452369213104248, 0.47683703899383545,
          -1.2999554872512817, -0.4454973340034485, -0.6839621663093567,
          1.409635066986084, -0.9830725789070129, 1.5372833013534546,
          0.9421688914299011, 0.7193860411643982, -0.8273891806602478
        ],
        [
          -0.7352322340011597, -2.0549118518829346, 1.3153091669082642,
          -0.9525097012519836, -0.7178234457969666, -0.47251611948013306,
          -0.2769639790058136, -2.3470242023468018, -0.7076661586761475,
          1.4240756034851074, 0.357529878616333, 0.5671364068984985,
          -0.5239797234535217, -0.23393023014068604, -1.7381232976913452,
          -0.44763246178627014, 1.4911110401153564, 0.5085434913635254,
          -0.8158278465270996, 0.4434477984905243, 1.059727430343628,
          0.8745675086975098, -0.5606276392936707, 0.23985695838928223,
          1.2740347385406494, -0.887327253818512, 1.1085362434387207,
          0.7542714476585388, 0.7826900482177734, -0.7322902679443359
        ],
        [
          -0.8692979216575623, 0.14166787266731262, 0.1388845592737198,
          -1.7490565776824951, -0.30080580711364746, -0.14327092468738556,
          0.04756513983011246, -0.2443932741880417, -0.1301477998495102,
          -0.16424526274204254, -0.17973114550113678, 0.37641099095344543,
          -0.3955625891685486, 0.043148595839738846, -0.28122735023498535,
          -0.3555445671081543, -0.3507107198238373, 0.2195272445678711,
          -0.22884266078472137, 0.33957186341285706, -0.06365785002708435,
          0.14214298129081726, -0.09650839865207672, 0.10888398438692093,
          -0.33065202832221985, -0.40382787585258484, -0.641374945640564,
          -0.10999550670385361, 0.21836036443710327, -0.12055403739213943
        ],
        [
          -2.9768645763397217, 0.2356412708759308, 1.7477331161499023,
          -0.7014907598495483, -0.49833548069000244, -0.36567753553390503,
          -0.31753188371658325, -1.7489663362503052, -0.36072301864624023,
          0.6065642833709717, 0.18575453758239746, -0.24889034032821655,
          -0.5410234928131104, 0.10838322341442108, -0.41536498069763184,
          -0.6030246615409851, 0.8046738505363464, 0.8762173056602478,
          -0.694706916809082, 1.1399301290512085, -1.0214306116104126,
          1.0169272422790527, -0.4133039116859436, 0.7594600319862366,
          0.7988384962081909, -0.7411739230155945, 0.4659760296344757,
          -0.8289093375205994, -0.26233795285224915, -0.31419429183006287
        ],
        [
          -0.6334111094474792, -2.7562577724456787, 0.3486839234828949,
          -1.4137837886810303, -0.8894949555397034, -1.036561369895935,
          -0.32202211022377014, -1.5828144550323486, -0.956283450126648,
          1.225392460823059, 0.4632317125797272, 0.8484482765197754,
          -1.0622347593307495, -0.4364178776741028, -2.415703058242798,
          -1.204023838043213, 1.0288296937942505, 0.40418827533721924,
          -1.0688700675964355, 0.3622966706752777, 1.7823379039764404,
          0.08095236867666245, -0.4069683849811554, -0.24207258224487305,
          1.2089767456054688, -1.243194818496704, 0.9993491172790527,
          1.000023365020752, 1.0055800676345825, -0.5393636226654053
        ],
        [
          2.4564342498779297, 3.991419792175293, -2.30853009223938,
          2.3837485313415527, 0.9654305577278137, 1.1918035745620728,
          0.7895591855049133, 3.2094202041625977, 1.5546306371688843,
          -3.1990795135498047, -1.7769215106964111, -2.143871784210205,
          1.2816039323806763, 0.4579184055328369, 3.9057323932647705,
          1.5838485956192017, -3.078925132751465, -1.753017783164978,
          1.7547848224639893, -1.6228070259094238, -2.968904495239258,
          -1.436927318572998, 0.7911928296089172, -0.3603513538837433,
          -3.179924964904785, 1.792995572090149, -2.627159357070923,
          -1.5967212915420532, -2.695678949356079, 0.8952808976173401
        ],
        [
          -5.8642425537109375, 0.5933729410171509, 2.6692376136779785,
          -0.06504950672388077, -0.35581305623054504, -0.24223197996616364,
          -0.36397597193717957, -1.2633482217788696, -0.688954770565033,
          0.13296176493167877, -0.13181832432746887, -0.07340462505817413,
          -0.3220008611679077, 0.2659423351287842, 1.4931964874267578,
          -0.637952446937561, 0.12108257412910461, 0.2934388518333435,
          -0.327585369348526, 0.6260037422180176, -0.6681029796600342,
          1.2344024181365967, 0.05109386146068573, 0.8666443824768066,
          -0.26515495777130127, -0.7756536602973938, 0.23995566368103027,
          -0.4958072900772095, -0.2986176609992981, -0.18424437940120697
        ],
        [
          3.782966136932373, 0.7878496646881104, -4.42152738571167,
          -7.6053786277771, -0.00966352503746748, -0.8268992900848389,
          0.8713186383247375, 0.09375900030136108, -0.3377903997898102,
          0.2181173712015152, -0.00769453402608633, 1.9802279472351074,
          -0.2741433084011078, -0.02009362354874611, 0.8049495220184326,
          -0.36507031321525574, 0.06764207035303116, 0.24464717507362366,
          -0.2571745216846466, 0.702911913394928, 1.9037843942642212,
          -3.999903678894043, 0.18418526649475098, -1.8347073793411255,
          -0.38400065898895264, -0.14605902135372162, -1.0993884801864624,
          1.191915512084961, 1.3455959558486938, -0.05096904933452606
        ],
        [
          -5.344579696655273, -0.5900593400001526, 2.8518290519714355,
          4.8927459716796875, -0.39347007870674133, -0.4696192741394043,
          -0.9054602384567261, 3.065542459487915, -1.0630792379379272,
          0.07410350441932678, 0.839586615562439, -0.14612247049808502,
          -0.27813997864723206, -0.08690101653337479, 0.12420105934143066,
          -0.8656030297279358, 0.050559237599372864, 0.4562670588493347,
          -0.8713030219078064, 0.3229561448097229, 0.16334740817546844,
          1.807851791381836, -0.2198333591222763, 0.991355836391449,
          0.14657187461853027, -1.1713327169418335, 0.2816404104232788,
          -0.5947366952896118, -0.3356062173843384, -0.15191611647605896
        ],
        [
          4.363057613372803, 0.07344497740268707, -1.0111340284347534,
          3.828355550765991, 0.4452671706676483, 0.8398878574371338,
          -0.4790636897087097, 1.7509959936141968, 1.2941434383392334,
          -1.6428145170211792, -2.106865167617798, -2.7103796005249023,
          0.8725259900093079, -0.0998569205403328, -0.3730732500553131,
          1.2047480344772339, -1.3299031257629395, -2.072782039642334,
          0.9901620149612427, -2.385249376296997, -1.545458197593689,
          -0.17466044425964355, -0.09587303549051285, -0.20245039463043213,
          -1.6458302736282349, 1.527576208114624, -1.7884695529937744,
          -1.538404941558838, -1.7017155885696411, 0.3578914999961853
        ],
        [
          -2.4141464233398438, -0.9258679747581482, 1.8684061765670776,
          -0.12308189272880554, -0.42446693778038025, -0.7540088891983032,
          -0.33971136808395386, -2.525214195251465, -0.4105200171470642,
          0.850667417049408, 0.3633742034435272, -0.3001589775085449,
          -0.741885244846344, 0.005366658791899681, -0.5705878138542175,
          -0.5150968432426453, 0.9999653697013855, 0.3333984911441803,
          -0.7453805208206177, 0.6982115507125854, 0.3470863103866577,
          1.354748010635376, -0.4425967335700989, 0.6412439346313477,
          0.9110183715820312, -0.10279283672571182, 0.5356572270393372,
          0.6231733560562134, 0.8630774617195129, -0.44284889101982117
        ],
        [
          -1.0277644395828247, 1.6298630237579346, -0.9465515613555908,
          2.04440975189209, -0.0806637555360794, -0.32845214009284973,
          0.20929113030433655, 0.6797569990158081, -0.4981399178504944,
          -1.2788243293762207, -0.3757454454898834, -0.2571117579936981,
          0.01285384688526392, -0.08602897077798843, 0.5937416553497314,
          -0.5093945860862732, -1.3205746412277222, -0.5910941958427429,
          -0.24206696450710297, -0.2884792983531952, -0.6405048966407776,
          -1.3299914598464966, -0.09313710778951645, -0.9650973677635193,
          -1.4183969497680664, -0.6173281073570251, -1.1905721426010132,
          -0.04226618632674217, -0.2749375104904175, -0.04313382878899574
        ],
        [
          -1.1122137308120728, -1.1009910106658936, 1.104846715927124,
          -1.1664339303970337, -0.6038764715194702, -0.42673009634017944,
          -1.0253899097442627, -3.48664927482605, -0.6453151702880859,
          2.487088918685913, 0.586609423160553, -1.9695204496383667,
          -0.8363296389579773, -0.16899900138378143, -1.0497931241989136,
          -0.006867832038551569, 2.563150644302368, 0.1823912113904953,
          -1.0485774278640747, -0.4277251660823822, -0.45940178632736206,
          0.12555333971977234, -0.622107982635498, 0.2933388948440552,
          3.2557883262634277, -0.17430126667022705, 3.598402976989746,
          0.5185742378234863, -0.47361013293266296, -0.8909804224967957
        ],
        [
          2.541325569152832, -5.480299949645996, 1.520453929901123,
          -0.000605570909101516, -1.5832523107528687, -1.493709683418274,
          -1.1590384244918823, -2.9206533432006836, -1.558880090713501,
          2.9634480476379395, 0.3582945168018341, 0.15789811313152313,
          -1.7543551921844482, -0.5832709074020386, -4.876937389373779,
          -1.681084394454956, 3.077981472015381, -0.027562838047742844,
          -2.1600735187530518, -0.354316383600235, 4.112887859344482,
          0.5024360418319702, -1.1679943799972534, -0.19524194300174713,
          2.840066909790039, -1.9565620422363281, 2.1892735958099365,
          1.858096718788147, 3.0914392471313477, -1.3701503276824951
        ],
        [
          4.266829013824463, -0.22873695194721222, -2.5021426677703857,
          -1.400885820388794, -0.040439121425151825, -0.02350226603448391,
          -0.16159145534038544, 0.23123440146446228, 0.35856378078460693,
          0.2737157940864563, -0.6879028081893921, 0.1550665944814682,
          0.10454311221837997, -0.07522986829280853, -2.0853726863861084,
          0.2833971381187439, 0.32011091709136963, -0.4155801236629486,
          0.40628188848495483, -0.7817421555519104, -0.20324242115020752,
          -1.4483698606491089, -0.3235372006893158, -1.038529396057129,
          0.23433363437652588, 0.4159013330936432, 0.15348096191883087,
          -0.014453485608100891, -0.15455281734466553, -0.005593499168753624
        ],
        [
          -0.9317909479141235, -2.719909906387329, 0.9185174107551575,
          -0.7552216649055481, -0.6657101511955261, -0.545233964920044,
          -0.4363033175468445, -1.1419235467910767, -0.6101334095001221,
          1.5250988006591797, 0.8001338839530945, 1.1506741046905518,
          -0.6632747054100037, -0.12543323636054993, -2.298774003982544,
          -0.7732598185539246, 1.3962332010269165, 0.7054833173751831,
          -0.9897015690803528, 0.8288004994392395, 2.8332748413085938,
          0.5074650049209595, -0.5137585997581482, 0.03324219956994057,
          1.6914094686508179, -0.7354447841644287, 1.4919219017028809,
          1.7430685758590698, 1.7037116289138794, -0.7664619088172913
        ],
        [
          2.2364914417266846, -2.566124200820923, -2.946324586868286,
          -4.398510456085205, -0.5752936005592346, -0.8782589435577393,
          -0.012590392492711544, 1.6092227697372437, -0.6012290120124817,
          1.1618802547454834, 0.6745660901069641, 1.7300465106964111,
          -0.7472474575042725, -0.7991926074028015, -2.0958056449890137,
          -0.5919457674026489, 0.9333342909812927, 0.3294426202774048,
          -0.8996415138244629, 0.8014255166053772, 0.8690222501754761,
          -3.8546063899993896, -0.1799306422472, -2.4128026962280273,
          0.441501259803772, -0.5823403596878052, -0.46391239762306213,
          2.097148895263672, 0.9976094961166382, -0.6049638986587524
        ]
      ],
      "biases": [
        -6.993283748626709, -1.6212859153747559, -1.5731381177902222,
        -0.7925161719322205, 0.3258832097053528, 0.017004722729325294,
        -0.6620027422904968, 2.161201238632202, -0.6771200895309448,
        -0.47006186842918396, -0.6044005155563354, 2.3290786743164062,
        -0.1109904795885086, -1.0533305406570435, -1.2605531215667725,
        -0.21321088075637817, -0.9478030800819397, -0.7592514753341675,
        1.1626733541488647, 0.010282987728714943, 2.3094356060028076,
        -0.6110885143280029, -2.82606840133667, -0.6519896984100342,
        0.7195128202438354, -2.5798795223236084, -2.2908923625946045,
        -0.9496470093727112, -0.081637442111969, 0.8208639025688171
      ]
    },
    {
      "weights": [
        [
          -1.2613083124160767, -2.1480653285980225, -0.7616111040115356,
          0.2201930582523346, -2.0015311241149902, 1.7567851543426514,
          0.23467819392681122, -2.891953706741333, 1.2493444681167603,
          -0.04779438674449921, 1.7570337057113647, -5.153805732727051,
          2.168900489807129, -0.7557725310325623, 0.89985591173172,
          0.14545217156410217, -0.22390125691890717, 1.6688734292984009,
          -0.0019391545793041587, 0.31233277916908264, -1.1720985174179077,
          2.0542938709259033, -0.7496039271354675, 1.5582282543182373,
          1.4132916927337646, -2.324756383895874, 1.3067221641540527,
          -0.8921293020248413, 1.403902530670166, -2.5662221908569336
        ],
        [
          -2.2786917686462402, -2.06479811668396, -3.544227361679077,
          0.15102966129779816, 0.3066781461238861, -0.8524263501167297,
          -2.7356042861938477, 1.7882685661315918, -0.46685823798179626,
          -0.12083457410335541, 1.2282835245132446, 1.9661017656326294,
          0.7754637598991394, 0.5055830478668213, 1.5656648874282837,
          0.3372313976287842, 1.0333317518234253, 0.3246777355670929,
          -0.690549373626709, -0.47642549872398376, 2.931849241256714,
          -1.825798511505127, -1.0609631538391113, 1.2349478006362915,
          -2.484173059463501, -0.34076225757598877, 3.3468902111053467,
          -0.6788980960845947, -0.4116393029689789, -0.940869927406311
        ],
        [
          -1.5145248174667358, 1.9811586141586304, -4.5441670417785645,
          -2.5075345039367676, -3.3071792125701904, -2.1707875728607178,
          1.8987369537353516, 1.1787340641021729, -1.590895175933838,
          -0.9223542809486389, 0.990329921245575, -3.0017967224121094,
          1.6706092357635498, 0.8170715570449829, -1.6150740385055542,
          0.32428476214408875, 1.2953696250915527, -1.9000213146209717,
          0.5235106348991394, 2.632232427597046, -4.285280227661133,
          5.746144771575928, -1.7373415231704712, 0.5310298204421997,
          -0.06492600589990616, 0.21510370075702667, -1.4512183666229248,
          -3.1844027042388916, -1.8307726383209229, -1.8683998584747314
        ],
        [
          -1.214210033416748, -1.7270373106002808, -1.689942479133606,
          0.10257276892662048, -0.6257461309432983, 1.3278801441192627,
          0.6169461011886597, 0.934112548828125, 1.2675752639770508,
          -0.011693249456584454, 0.6328637003898621, -5.192424774169922,
          -0.025863241404294968, -0.5256980657577515, 1.109576940536499,
          0.1930776834487915, 0.21815957129001617, 0.9879857301712036,
          -0.7252992391586304, 0.03455401584506035, 0.15674397349357605,
          2.1180999279022217, 0.18784396350383759, 0.41885432600975037,
          -0.3738231360912323, -1.1909326314926147, 2.226727247238159,
          -1.0404222011566162, 1.3108664751052856, -1.691115140914917
        ],
        [
          -1.2100204229354858, -1.4710373878479004, -0.4941759705543518,
          -0.34854698181152344, -0.09049913287162781, 0.3013852834701538,
          -1.1360223293304443, -0.7005224227905273, 0.4252249598503113,
          -0.2873081564903259, 0.7645189166069031, -0.49603936076164246,
          -1.0624350309371948, 2.614196300506592, 0.3846166133880615,
          0.01262512058019638, 0.19075414538383484, 0.5690773129463196,
          -1.9769583940505981, -0.6685917377471924, -0.8669121265411377,
          -1.3811484575271606, -1.0220789909362793, 0.5780500173568726,
          -0.7861868143081665, 2.1169486045837402, 1.8377306461334229,
          0.635680615901947, 0.621515691280365, 1.5673571825027466
        ],
        [
          -0.7749432921409607, -0.7549177408218384, -1.6884819269180298,
          -0.3201810419559479, -1.33321213722229, 1.535969853401184,
          -1.2744739055633545, 0.3487083613872528, 1.8171184062957764,
          -0.23427090048789978, 2.2243824005126953, -0.727268397808075,
          1.7344024181365967, 1.012115716934204, 1.6220223903656006,
          -0.2165345996618271, 1.6316438913345337, 1.5018874406814575,
          -2.3171231746673584, -0.07466348260641098, 0.1995525360107422,
          -0.13933829963207245, -0.43043211102485657, 1.9573451280593872,
          -1.6271064281463623, 1.4280686378479004, 1.9470813274383545,
          -1.0112683773040771, 1.5492032766342163, -1.4080630540847778
        ],
        [
          -2.9438648223876953, -0.5370873212814331, -2.512083053588867,
          -0.7801645994186401, -0.7282776832580566, 0.7494657039642334,
          -1.5246409177780151, 2.9473891258239746, 0.8409152030944824,
          0.5646592378616333, 0.4632261097431183, 0.08131039142608643,
          0.36180874705314636, -1.500914454460144, -0.5842496752738953,
          0.6850730776786804, 0.7678731679916382, 0.1529269814491272,
          0.11584141105413437, 1.2868160009384155, 2.0344953536987305,
          -1.903623342514038, -0.673112690448761, 0.5525867342948914,
          0.36010465025901794, -0.4151296615600586, 0.4198659062385559,
          -0.28567084670066833, 0.39280691742897034, 0.4383411407470703
        ],
        [
          -2.0816900730133057, -0.5398685336112976, -2.213935375213623,
          -0.9116857647895813, -0.3220578730106354, 0.5272616744041443,
          0.11009299010038376, 1.1823173761367798, 0.1165441945195198,
          -0.22298987209796906, -0.2212647646665573, -2.6900134086608887,
          0.5931615233421326, -1.433243751525879, -1.142194390296936,
          0.2808873653411865, -0.300355464220047, -0.55265212059021,
          -0.25159260630607605, 1.037211537361145, -0.31638890504837036,
          1.53670072555542, -1.543848991394043, -0.5967761278152466,
          0.8574710488319397, -1.6889787912368774, -1.105352520942688,
          -1.0900073051452637, 0.21178337931632996, -1.4475358724594116
        ],
        [
          -2.749943256378174, -3.1358463764190674, -0.5470319390296936,
          -0.6004607677459717, -2.967636823654175, 1.9149800539016724,
          -2.404118776321411, 1.1953176259994507, 1.5928409099578857,
          -0.0653800442814827, 1.5972704887390137, -0.8653085827827454,
          1.0002535581588745, -0.28216832876205444, 0.7078384757041931,
          0.16556863486766815, 1.3731809854507446, 0.47593802213668823,
          -0.6891378164291382, 0.43047192692756653, 2.92345929145813,
          -0.44784247875213623, 0.24304787814617157, 1.170554280281067,
          -0.38638192415237427, 0.3266546428203583, 0.8555723428726196,
          -0.3400227725505829, 1.4864646196365356, -1.3079285621643066
        ],
        [
          -3.113192081451416, -0.27686846256256104, -2.4423701763153076,
          -0.7070879340171814, -0.4578728973865509, 0.548272430896759,
          -0.10566074401140213, 1.6393004655838013, 0.62134850025177,
          -0.19609388709068298, -0.9241930842399597, -0.1432749181985855,
          -0.12109119445085526, -2.0560524463653564, -1.2672688961029053,
          0.08746135234832764, -0.532954752445221, -0.34456193447113037,
          -0.8221552968025208, 1.4386500120162964, -0.6152297854423523,
          0.38688260316848755, -2.0665972232818604, -0.894572913646698,
          0.487292617559433, -1.784854531288147, -1.5091617107391357,
          -0.6649952530860901, 0.3304561376571655, -1.1577657461166382
        ],
        [
          -1.9341363906860352, -0.669690728187561, -0.5136508941650391,
          0.3127531111240387, 0.07317602634429932, 2.4781529903411865,
          -0.3065802752971649, -0.6075563430786133, 2.097099542617798,
          -0.35250595211982727, 0.17914386093616486, 0.7325824499130249,
          -0.13956467807292938, 1.1038552522659302, 1.0541356801986694,
          0.12823550403118134, 0.1767512857913971, 1.9530565738677979,
          -3.7256016731262207, -0.4223468601703644, 0.7684330940246582,
          -0.5838274955749512, -1.6018913984298706, 0.2706907391548157,
          -0.834617555141449, 0.5164034366607666, 3.0485551357269287,
          0.5335052609443665, 1.7980488538742065, 0.7798855900764465
        ],
        [
          -4.116801738739014, 0.08091532438993454, 1.9061834812164307,
          0.07717312127351761, -2.810776710510254, 0.7838017344474792,
          2.26846981048584, 0.7597900032997131, 0.45678097009658813,
          -0.008506329730153084, -0.34622013568878174, -3.8309831619262695,
          1.8710417747497559, -1.9110220670700073, -0.7554193139076233,
          -0.46755290031433105, 0.041884589940309525, 0.225950688123703,
          2.0177934169769287, 1.1096467971801758, -3.049419403076172,
          3.481152296066284, 0.7396572232246399, -0.4406747817993164,
          1.264267921447754, -2.8246867656707764, 0.8219517469406128,
          -2.2227916717529297, 0.9928922057151794, -4.031980991363525
        ],
        [
          -1.4529210329055786, -2.433222770690918, -0.9749107956886292,
          -1.271655797958374, -1.0305066108703613, 0.0252618920058012,
          -1.2728924751281738, 0.938765287399292, -0.053871579468250275,
          0.14478224515914917, 0.41515347361564636, 1.4624948501586914,
          0.3948531448841095, 0.16803301870822906, 0.049815863370895386,
          0.36242398619651794, -0.23374061286449432, 0.10190550237894058,
          -0.5010483860969543, 0.3594374358654022, 1.400712251663208,
          -0.4491777718067169, 0.20178048312664032, 0.1157933697104454,
          0.0659959688782692, -1.7252248525619507, -0.45803338289260864,
          -0.46066367626190186, -0.26852738857269287, -0.21333658695220947
        ],
        [
          1.5645642280578613, 1.3513046503067017, 0.5348153114318848,
          0.0935719758272171, 0.6662454009056091, -1.3826786279678345,
          0.9092805981636047, 0.9217019081115723, -1.4420558214187622,
          0.3420961797237396, -0.47498056292533875, 1.6054134368896484,
          -0.07924444228410721, -0.9769824743270874, -1.4274334907531738,
          -0.16712389886379242, -0.4126155376434326, -1.315635323524475,
          2.9820542335510254, 0.45776015520095825, 0.6002928018569946,
          0.28571686148643494, 0.8774261474609375, -0.4985281229019165,
          1.0851346254348755, -0.4810812473297119, -3.7558493614196777,
          -0.12000568956136703, -1.2267179489135742, 0.3575280010700226
        ],
        [
          -2.9608983993530273, -0.013592604547739029, -0.9643082618713379,
          -0.0345383957028389, -0.2880608141422272, 2.316617488861084,
          0.1997680366039276, -1.6790316104888916, 2.4223594665527344,
          -0.3695680797100067, 0.5341466069221497, 0.2100660651922226,
          0.2762317359447479, 1.026117205619812, 1.4444383382797241,
          -0.11611178517341614, 0.41176360845565796, 2.047212839126587,
          -4.333625316619873, -0.6678910851478577, -1.5880932807922363,
          0.4971783459186554, -2.7712299823760986, 0.4069926142692566,
          -1.564589262008667, 0.8847060203552246, 4.378444194793701,
          -0.649843156337738, 1.7897822856903076, -0.6421648859977722
        ],
        [
          -5.345917701721191, -1.69003427028656, -0.726142168045044,
          0.3093215823173523, -4.06313419342041, 2.17562198638916,
          -0.42443960905075073, 2.165391445159912, 2.2180936336517334,
          0.8703274726867676, 0.4133005738258362, -1.3113207817077637,
          1.8692028522491455, -1.4903641939163208, 0.8404309153556824,
          0.9678093791007996, 0.9991371035575867, 1.8617643117904663,
          -0.2443377822637558, 1.2745084762573242, 2.164426565170288,
          -0.7037848830223083, -1.937093734741211, 0.5778497457504272,
          0.30952420830726624, -2.2758278846740723, 2.222893476486206,
          -0.31409817934036255, 2.1218185424804688, -4.34029483795166
        ],
        [
          0.5725463032722473, -1.5354182720184326, -0.6342169642448425,
          -0.4123784303665161, -0.6011049747467041, 0.19805818796157837,
          -2.0450875759124756, 0.5773264169692993, 0.5266674757003784,
          -0.22953109443187714, 1.0905964374542236, -2.2017881870269775,
          0.5825549960136414, 2.2384698390960693, 0.6093655228614807,
          0.11870839446783066, 0.6837049126625061, 0.7035447955131531,
          -1.335379958152771, -0.4411356449127197, -3.773139238357544,
          -0.7410250902175903, -1.1042864322662354, 1.6452336311340332,
          -0.7777055501937866, 2.357891321182251, 0.9505307078361511,
          -0.8752214312553406, 0.411543607711792, 1.473114013671875
        ],
        [
          -3.238722324371338, -3.4511399269104004, -0.6523799300193787,
          -0.6788291931152344, 0.01021947804838419, -0.8369885087013245,
          -2.0381228923797607, 0.7116422653198242, -0.6555188894271851,
          -0.05510999262332916, 0.9950506091117859, 1.7056852579116821,
          0.9854661226272583, -0.003883789759129286, -0.10059506446123123,
          0.28604984283447266, 1.2689027786254883, -0.7408350706100464,
          0.6027591824531555, 0.07771097123622894, 2.4718539714813232,
          -1.8842191696166992, -0.4307348430156708, 1.1047968864440918,
          -1.1312097311019897, -0.49003663659095764, -0.8946219086647034,
          0.029749726876616478, -0.7860445380210876, -1.8779715299606323
        ],
        [
          -2.5838756561279297, -3.2941856384277344, -4.137693405151367,
          -0.9196845293045044, 0.9938956499099731, -1.5555342435836792,
          -4.302981376647949, 2.7434449195861816, -0.8566979765892029,
          0.0675877258181572, 2.131258964538574, -0.7940542697906494,
          1.5493453741073608, 1.052201271057129, -0.5298895835876465,
          0.3966672420501709, 2.01662540435791, -0.7722070813179016,
          1.0462294816970825, 2.4036548137664795, 1.4314440488815308,
          -0.0791201964020729, -2.7314436435699463, 1.5657624006271362,
          0.3698503375053406, 2.932346820831299, 0.02575526013970375,
          -0.5429713129997253, -1.2735373973846436, -1.5023552179336548
        ],
        [
          -2.0193536281585693, -0.946478009223938, -3.375675916671753,
          -0.5010778903961182, -0.001711851917207241, 0.35733282566070557,
          -2.060033082962036, 2.512953281402588, 0.39415061473846436,
          -0.08181829005479813, 1.1306155920028687, 0.3730723261833191,
          0.7789686322212219, -0.928690493106842, 0.27142074704170227,
          0.6250520944595337, 1.284136414527893, 0.025127019733190536,
          -0.49174490571022034, 1.3106660842895508, 1.833589792251587,
          -0.1290426403284073, -1.5920504331588745, 0.8468524813652039,
          -0.5611667633056641, -0.46256622672080994, 0.1562720686197281,
          -0.37833064794540405, 0.3467179536819458, -0.4348304867744446
        ],
        [
          0.4964926838874817, 0.044459156692028046, 0.41426941752433777,
          -0.428423136472702, 0.2632819712162018, -2.422067642211914,
          0.6552042961120605, 0.7288751602172852, -2.176699638366699,
          0.23994290828704834, -2.0267860889434814, 2.5726068019866943,
          -1.1952341794967651, -1.24604070186615, -2.178776502609253,
          -0.1342839002609253, -1.5647011995315552, -1.5224926471710205,
          2.7807345390319824, 0.01058574952185154, 1.113918423652649,
          -1.2186064720153809, -0.015431450679898262, -1.6111284494400024,
          1.8253464698791504, -0.7252824902534485, -3.934522867202759,
          0.15297819674015045, -2.1528289318084717, 0.443756639957428
        ],
        [
          -2.1723592281341553, -1.8127472400665283, -1.434182047843933,
          -0.5340781807899475, -2.9172873497009277, 0.43107229471206665,
          1.074696660041809, -0.8865309953689575, 0.6939464807510376,
          -0.15777496993541718, 1.6602587699890137, -3.4710981845855713,
          2.6004574298858643, 0.5347806215286255, 0.5000301599502563,
          -0.5305427312850952, 1.7751107215881348, 0.5189710259437561,
          -0.22134259343147278, 2.1324071884155273, -1.7238903045654297,
          1.1047087907791138, -1.3433879613876343, 1.4481459856033325,
          -0.2257801592350006, 0.9108967185020447, 0.6522873044013977,
          -1.5235475301742554, 0.4091305732727051, -2.423628807067871
        ],
        [
          -2.5851128101348877, -1.5559132099151611, -1.6678069829940796,
          -0.40636998414993286, -2.1122488975524902, 1.2541967630386353,
          -0.42914873361587524, 0.12025823444128036, 0.9232017397880554,
          -0.05566660687327385, 1.2015724182128906, -2.5770998001098633,
          0.3496728837490082, 0.08297955244779587, 0.872862696647644,
          -0.12979036569595337, 0.7256295084953308, 0.786156415939331,
          -1.367600917816162, 0.30263563990592957, 0.05811643600463867,
          0.8901394009590149, -0.4786164462566376, 1.351956844329834,
          -0.18923193216323853, 0.7466768026351929, 1.9947563409805298,
          -1.5939013957977295, 1.1311557292938232, -1.2977588176727295
        ],
        [
          -1.2926247119903564, -2.6535427570343018, -1.7242792844772339,
          -2.042253017425537, -1.0479631423950195, 0.5794177055358887,
          -2.852782964706421, 1.2475922107696533, 0.530519962310791,
          -0.20472979545593262, 1.8802776336669922, -1.9382872581481934,
          1.4499114751815796, 0.3119595944881439, 1.2077603340148926,
          0.8036954998970032, 0.9939368367195129, 0.60554438829422,
          -1.2252779006958008, 1.8032495975494385, 0.19483791291713715,
          -0.846996009349823, -0.4740731120109558, 1.137932300567627,
          -0.6152397990226746, -0.9855656623840332, 1.6245542764663696,
          -0.42128950357437134, 0.7905988693237305, -1.1288022994995117
        ],
        [
          -1.818145751953125, -1.232921838760376, -1.9872667789459229,
          -0.0893578752875328, -2.4337103366851807, -0.016909820958971977,
          -0.4853935241699219, 1.64675772190094, -0.10544906556606293,
          0.11336877942085266, 0.9036397337913513, -0.6955459117889404,
          1.5497158765792847, -0.2527792453765869, 0.13846009969711304,
          -0.23416824638843536, 1.6200852394104004, 0.1546347439289093,
          0.5100508332252502, 1.0940285921096802, -2.0698728561401367,
          -0.1451040357351303, -1.591347575187683, 1.1321074962615967,
          0.2144133299589157, 1.9080121517181396, -0.5208024382591248,
          -1.0700010061264038, 0.15469622611999512, -2.0681657791137695
        ],
        [
          -0.063555508852005, -1.6011550426483154, -0.47698861360549927,
          -0.09402965754270554, -0.5479739308357239, 0.773871660232544,
          -0.8737673163414001, -1.4864979982376099, 0.9856805801391602,
          -0.5873193144798279, 1.1476095914840698, -1.1769225597381592,
          0.34199270606040955, 3.2174813747406006, 1.1861473321914673,
          -0.4927992820739746, 0.4224977195262909, 0.8413926362991333,
          -2.0167996883392334, -0.6312018632888794, -1.8449220657348633,
          -0.6575702428817749, -1.2239298820495605, 0.9242280721664429,
          -0.9621386528015137, 2.8328158855438232, 1.7408920526504517,
          0.18609099090099335, 0.829566240310669, 1.0003066062927246
        ],
        [
          -2.0870163440704346, -0.6947534680366516, -1.521926999092102,
          -0.28282585740089417, -0.6186944246292114, 1.8323661088943481,
          -0.3844292461872101, -0.5821124911308289, 1.8355486392974854,
          -0.2103724479675293, 0.5491615533828735, 0.9529542326927185,
          0.38813909888267517, 0.5684729814529419, 0.9862037897109985,
          0.17330852150917053, 0.4071422815322876, 1.4857981204986572,
          -3.826819896697998, -0.2310847043991089, 0.006015486549586058,
          0.545969545841217, -2.2951912879943848, 0.23135913908481598,
          -1.0129239559173584, 0.8485240340232849, 3.198348045349121,
          -0.7296642065048218, 1.4637272357940674, -0.562593936920166
        ],
        [
          -5.489619255065918, -3.3294131755828857, 1.7393720149993896,
          -1.291237473487854, -1.032792329788208, -2.098344564437866,
          -0.4941631257534027, 2.384293556213379, -1.5402495861053467,
          1.0343506336212158, -0.011378925293684006, 2.0147528648376465,
          0.3870578706264496, -0.6155470609664917, -1.021030068397522,
          0.201079860329628, 0.098542220890522, -1.6441200971603394,
          3.3320858478546143, 0.39893972873687744, 1.1970521211624146,
          -3.49515962600708, -0.6460273861885071, 0.2510349452495575,
          0.627653956413269, -0.5329342484474182, -1.7144336700439453,
          1.7335501909255981, -1.950211524963379, -1.816490650177002
        ],
        [
          -3.671945095062256, -2.2903683185577393, -0.9984847903251648,
          0.17570984363555908, 0.5814741849899292, -1.7898694276809692,
          -4.241067409515381, 4.341564178466797, -0.9595151543617249,
          0.017263129353523254, 1.3239589929580688, 2.728912115097046,
          0.7583851218223572, -1.2987192869186401, -0.1701585054397583,
          0.1943165808916092, 1.5600022077560425, -0.9496712684631348,
          1.3052752017974854, 0.1447506994009018, 3.294339418411255,
          -2.383049726486206, -0.616925835609436, 1.3445982933044434,
          -0.6308276653289795, 0.6452561020851135, 1.809436321258545,
          0.17876842617988586, -1.012593388557434, -0.6373685002326965
        ],
        [
          -1.335184931755066, 2.6376497745513916, 1.58332359790802,
          3.2717623710632324, 1.9386976957321167, 0.23486196994781494,
          0.07479923963546753, -3.9208693504333496, 0.15973344445228577,
          -0.33414262533187866, -0.22841686010360718, 1.5476658344268799,
          0.9363914132118225, 0.7709743976593018, 1.4524781703948975,
          -0.22576011717319489, 1.100764274597168, 0.8564016819000244,
          -1.1453242301940918, -1.9113638401031494, -2.764495849609375,
          -0.3355739712715149, -2.1763875484466553, 0.6523964405059814,
          -3.5056231021881104, 0.07888355106115341, 1.5767357349395752,
          0.2913311719894409, 0.2595021426677704, 3.789262056350708
        ]
      ],
      "biases": [
        1.2512730360031128, -1.2429434061050415, -0.5994885563850403,
        0.5497294068336487, -1.2552976608276367, -0.6267372369766235,
        0.5723428726196289, 0.14725975692272186, 0.648809015750885,
        0.44800299406051636, -1.2571842670440674, 1.9080806970596313,
        -0.07094638049602509, 1.0365612506866455, -1.71688973903656,
        2.2266228199005127, -1.0472469329833984, 0.02943141758441925,
        0.2994656562805176, -0.1799943745136261, 0.4960222840309143,
        0.3083760738372803, -0.3381727635860443, -0.5931511521339417,
        0.7355007529258728, -1.2412322759628296, -1.3883554935455322,
        1.2121386528015137, -0.6697075366973877, -0.892880380153656
      ]
    },
    {
      "weights": [
        [
          -0.3723275661468506, 1.1704823970794678, 1.5804781913757324,
          -0.32748162746429443, 0.49755388498306274, 3.112842321395874,
          0.811486005783081, -0.30982449650764465, -1.6116515398025513,
          1.846021056175232, -1.1134657859802246, -2.3554959297180176,
          0.46741071343421936, -1.497530221939087, -0.4571963846683502,
          -1.934511423110962, 1.2141401767730713, 1.1380878686904907,
          5.730545997619629, 2.0580251216888428, -2.1835503578186035,
          -0.251350462436676, -0.15536564588546753, 1.7074187994003296,
          3.138620376586914, 0.8580282330513, -0.6425579786300659,
          0.052176352590322495, 1.2376878261566162, -2.2659223079681396
        ],
        [
          -0.14188149571418762, -0.9702295064926147, -0.12416020035743713,
          0.28852003812789917, 2.397752046585083, 0.7852964401245117,
          -1.695115566253662, -0.2518661916255951, -1.618303894996643,
          -0.8049266338348389, 1.890419602394104, -1.2200311422348022,
          -0.25637322664260864, -0.946691632270813, 2.5843217372894287,
          -0.8070222735404968, 2.362851858139038, -0.37444019317626953,
          0.7498079538345337, -2.2032577991485596, -1.414121389389038,
          -0.7841876745223999, -0.8670259118080139, 2.0059256553649902,
          -0.8015967011451721, 2.387387275695801, 1.0638140439987183,
          -0.7183218598365784, -1.277204155921936, -0.5714728832244873
        ],
        [
          -0.5312769412994385, 1.0840461254119873, -2.87493634223938,
          -0.17832940816879272, -0.034242913126945496, 1.4258389472961426,
          0.3049479126930237, -0.18627946078777313, 0.18270644545555115,
          0.15396101772785187, -0.9256446361541748, 0.02442246675491333,
          0.6793078184127808, -0.9568060040473938, -1.073779582977295,
          -0.889325737953186, 0.32763609290122986, 0.08459211885929108,
          2.8243496417999268, 1.0106054544448853, -1.7049827575683594,
          0.8977760076522827, -0.2408820539712906, 0.182550311088562,
          1.4863568544387817, 0.1233813688158989, -1.2109359502792358,
          0.13482876121997833, 2.5581002235412598, -0.8594242930412292
        ],
        [
          -0.028211213648319244, 0.5441234707832336, -1.4100185632705688,
          -0.7593817710876465, 1.549058437347412, 1.1055574417114258,
          -0.32841426134109497, -1.4134494066238403, -0.20673304796218872,
          -2.1162164211273193, 1.998802661895752, -0.30915647745132446,
          -0.4049829840660095, -1.3197660446166992, 1.549651026725769,
          -0.10940728336572647, 0.9596382975578308, -0.9850311875343323,
          0.19804422557353973, -0.7227840423583984, -1.7822011709213257,
          -0.4439316391944885, 1.105038046836853, 0.1613597422838211,
          -0.6166741251945496, 2.759795665740967, 0.8713861107826233,
          -0.4630134105682373, 0.4631751775741577, -0.6350709199905396
        ],
        [
          -1.6085611581802368, 1.3733313083648682, -1.091042160987854,
          -1.4717987775802612, 0.7454169392585754, -0.5559166073799133,
          -0.33042627573013306, -0.5168811678886414, 1.0822315216064453,
          -1.2266582250595093, 0.8138682246208191, -1.480782151222229,
          -1.2547136545181274, -0.7463715076446533, -0.2921272814273834,
          -1.530592441558838, 0.013662784360349178, -0.07886126637458801,
          1.7947301864624023, 1.29474675655365, -0.3137704133987427,
          -1.3144772052764893, -0.3689706027507782, -1.4665082693099976,
          -0.8714512586593628, 0.6048872470855713, -0.6676908135414124,
          0.6512486338615417, 2.0248537063598633, 0.5542347431182861
        ],
        [
          0.3340495526790619, 0.21763400733470917, -0.8895427584648132,
          0.09893884509801865, -0.902256429195404, 0.02768622525036335,
          -0.6394859552383423, 0.26601216197013855, 1.3011088371276855,
          0.11719810217618942, -1.8281264305114746, 1.177722454071045,
          1.9718234539031982, -1.7226110696792603, -1.1625640392303467,
          1.5888421535491943, -0.5525375008583069, 3.6477012634277344,
          0.6931337118148804, -0.6690678596496582, -1.738701581954956,
          0.23955589532852173, -0.30102524161338806, 0.48254695534706116,
          0.6068729162216187, -0.9732739925384521, -0.9613872170448303,
          0.6442441344261169, 0.3621627986431122, -1.370354175567627
        ],
        [
          1.6734864711761475, 1.6248418092727661, 0.07994905114173889,
          1.113206386566162, 0.6233077049255371, 0.9536736011505127,
          0.7437466979026794, 0.8109281063079834, 2.4076268672943115,
          -0.09669311344623566, 1.127634882926941, 1.8753868341445923,
          0.5502169728279114, -2.4511539936065674, 0.37188708782196045,
          2.9521665573120117, 0.6072062253952026, 0.8461270332336426,
          0.4582158029079437, -0.004513158928602934, -3.151085615158081,
          1.4669097661972046, 1.10122811794281, 0.4987897574901581,
          0.22513030469417572, -0.41064560413360596, 0.7642105221748352,
          -0.20256061851978302, -0.0028935763984918594, -0.9480485320091248
        ],
        [
          -0.0998617485165596, -0.28527000546455383, -0.5866615772247314,
          -0.4204714000225067, 0.5190345048904419, -0.042159274220466614,
          -0.2083878517150879, -0.19101381301879883, -0.1453516036272049,
          -0.15387381613254547, 0.25273844599723816, -0.26861363649368286,
          0.059843551367521286, -0.7067102789878845, 0.48125725984573364,
          -0.10099653899669647, 0.20619559288024902, -0.4833589196205139,
          -0.2147524654865265, -0.5686990022659302, -0.7284604907035828,
          -0.5824076533317566, 0.010971227660775185, -0.2997052073478699,
          -0.592875599861145, -0.14722083508968353, 0.4706927537918091,
          -0.6749817132949829, -0.47520434856414795, -1.0325608253479004
        ],
        [
          3.3770251274108887, 3.6196537017822266, 0.22975005209445953,
          2.23106050491333, 1.1335023641586304, 1.4455718994140625,
          0.3962092697620392, 0.6631132364273071, 2.4935154914855957,
          -0.49801093339920044, 2.371877670288086, -0.2788681983947754,
          0.43927252292633057, -3.1847715377807617, 1.804079294204712,
          0.11159369349479675, 0.9874184131622314, 2.235727548599243,
          3.0249500274658203, 1.9238229990005493, -4.317825794219971,
          2.3804447650909424, 2.087460994720459, 1.1871799230575562,
          -0.09669716656208038, 0.7121178507804871, 1.3856803178787231,
          2.498495578765869, 1.8144440650939941, 0.23186583817005157
        ],
        [
          -0.4668774902820587, -0.2509940266609192, -0.4852368235588074,
          -0.4807351231575012, 0.8476053476333618, 0.17364059388637543,
          0.05494198948144913, -0.40252187848091125, -0.5987274646759033,
          -0.7451930642127991, 0.6445821523666382, -0.2569968104362488,
          -0.0785597488284111, -1.1700950860977173, 1.429574728012085,
          -0.5157874226570129, 0.5847905874252319, -0.5011560320854187,
          -0.34423401951789856, -0.7158907055854797, -1.1237077713012695,
          -1.1241883039474487, 0.09356740862131119, 0.03869645297527313,
          -0.9867129325866699, 0.3315590023994446, 0.8790145516395569,
          -0.946273684501648, 0.03427566960453987, -1.6582581996917725
        ],
        [
          0.2970035672187805, -0.5362620949745178, -1.672037124633789,
          -1.023335576057434, 1.420209527015686, -0.2695436477661133,
          -2.1049563884735107, -1.3536158800125122, -1.4091670513153076,
          -1.935875654220581, 1.2577110528945923, 1.122969150543213,
          -0.9993601441383362, -1.2501944303512573, 1.629285454750061,
          -1.2310720682144165, 1.0000125169754028, -0.7841393351554871,
          -0.39601629972457886, -2.1683545112609863, -1.2295387983322144,
          -0.9221768975257874, 0.10024725645780563, 0.01873244345188141,
          -0.7552707195281982, 1.87748122215271, 0.43664002418518066,
          -0.6053236722946167, -0.035330284386873245, -0.1868734061717987
        ],
        [
          -0.05755198746919632, 1.4246509075164795, -6.132559776306152,
          -3.066667079925537, 0.5328866243362427, 1.04697847366333,
          -2.822964668273926, -1.6152989864349365, 1.148404598236084,
          -0.5833630561828613, 0.3786860704421997, -2.8142499923706055,
          1.5280253887176514, -0.3223528563976288, 1.5673346519470215,
          -3.9264822006225586, 2.6941893100738525, 3.836850881576538,
          3.222583532333374, -1.446361780166626, 1.4076541662216187,
          0.13526774942874908, -0.9731753468513489, 2.546588659286499,
          -0.7753377556800842, 0.5084099173545837, 0.9483357071876526,
          1.6672080755233765, 0.6941448450088501, -1.50898015499115
        ],
        [
          -0.40738579630851746, -1.0313113927841187, -0.39516595005989075,
          -0.02465737611055374, -0.7722152471542358, 0.2131434977054596,
          -0.40621209144592285, -0.4997505843639374, 1.2394771575927734,
          -0.30574262142181396, -0.47830072045326233, 1.4410279989242554,
          0.3067190647125244, -0.6643615365028381, -0.6095008850097656,
          -0.10412599891424179, 1.668370246887207, -0.35409483313560486,
          -0.18405818939208984, -0.05157686024904251, -0.8862090706825256,
          1.8809640407562256, 0.7229717373847961, -0.7271475791931152,
          0.3740816116333008, -0.3826906979084015, -0.31822478771209717,
          0.2526751458644867, 0.27635520696640015, -0.8622049689292908
        ],
        [
          -1.161728858947754, 1.3676021099090576, -3.7007851600646973,
          -0.6633619070053101, -1.448890209197998, 1.7384147644042969,
          1.2289248704910278, -0.626262366771698, 1.6021925210952759,
          -0.2182319611310959, -2.7023792266845703, -1.2498714923858643,
          -1.5181598663330078, -1.6670631170272827, -1.8744677305221558,
          0.5914310812950134, -0.3993862569332123, 1.012371301651001,
          3.0754456520080566, 1.1333558559417725, -1.3504579067230225,
          1.6323398351669312, -0.3253335952758789, -2.52413272857666,
          2.5354015827178955, -0.30910858511924744, -2.243988037109375,
          1.070704698562622, 1.95950186252594, 3.6808345317840576
        ],
        [
          0.6912840008735657, 2.6610655784606934, -3.2334189414978027,
          1.1743173599243164, 1.7370836734771729, 3.6586058139801025,
          -1.0104281902313232, -0.9699066877365112, -0.232341468334198,
          -1.6377729177474976, 0.5577505826950073, -1.7600486278533936,
          0.019867438822984695, -2.8747758865356445, 1.6458615064620972,
          -2.443408250808716, 2.211512565612793, 1.468509316444397,
          2.0469472408294678, 0.2826324999332428, -3.458265781402588,
          0.30863818526268005, 1.42935311794281, 1.7043285369873047,
          -0.9796024560928345, 1.7719873189926147, 1.5263158082962036,
          0.9603744745254517, 1.8226417303085327, -1.2334498167037964
        ],
        [
          0.3078628182411194, -3.488415002822876, 3.504842758178711,
          -1.5904115438461304, 0.5261358618736267, -0.08837124705314636,
          -0.3011416792869568, 1.5219895839691162, 3.055490016937256,
          1.5092148780822754, 1.4566826820373535, -2.510679244995117,
          0.5191782116889954, -1.9736882448196411, 1.6200859546661377,
          -1.7095978260040283, 1.6063768863677979, -1.1915788650512695,
          -1.69208562374115, -0.552593469619751, -1.7568022012710571,
          -0.11792010813951492, 2.773738145828247, 0.2787316143512726,
          0.8421993255615234, 0.8338205218315125, 2.332915782928467,
          -2.6463615894317627, -2.3812148571014404, -6.177437782287598
        ],
        [
          0.054476652294397354, -0.057178791612386703, -0.0025157341733574867,
          -0.20918583869934082, -0.1998557597398758, -0.02923215739428997,
          -0.4002265930175781, -0.4213675558567047, -0.30395951867103577,
          -0.4740668535232544, -0.12031084299087524, 0.10921421647071838,
          -0.24852889776229858, -0.6860079765319824, 0.3490867614746094,
          -0.38664957880973816, -0.007877741008996964, -0.2554033398628235,
          0.07651663571596146, -0.3533426523208618, -0.7789596915245056,
          -0.14450564980506897, -0.27724048495292664, 0.14071382582187653,
          -0.1532534658908844, -0.032647449523210526, -0.15513372421264648,
          -0.518359899520874, -0.12484416365623474, -0.40326350927352905
        ],
        [
          -1.0048850774765015, 0.08838178217411041, 0.8040479421615601,
          -0.21614213287830353, -0.19681891798973083, 0.21844913065433502,
          1.0098106861114502, 0.29245808720588684, 0.6545801162719727,
          0.5089071393013, 0.2719596326351166, -1.0084123611450195,
          0.01741531677544117, -0.8545165657997131, 0.8138134479522705,
          0.4314219057559967, -0.1709870845079422, -0.7410423755645752,
          -0.6053767800331116, 0.5416605472564697, -1.2177889347076416,
          -0.1265885978937149, -0.14861144125461578, -0.37913039326667786,
          0.25503307580947876, -1.3637933731079102, 0.3508630394935608,
          -0.7807325720787048, -0.607119619846344, -0.7373027205467224
        ],
        [
          -3.875339984893799, -1.2644400596618652, 1.3352423906326294,
          -2.777918815612793, -0.07223272323608398, 0.13813090324401855,
          0.04780998080968857, -0.046203356236219406, -0.5449829697608948,
          0.3425784111022949, -0.2186533659696579, -1.5324914455413818,
          0.08617192506790161, 1.5436211824417114, 0.45864710211753845,
          0.2641710937023163, -0.22499890625476837, -1.0280097723007202,
          -0.49229785799980164, -0.057953350245952606, 0.2702007591724396,
          -0.6480008363723755, -1.6782294511795044, -0.3370780050754547,
          -0.5590801239013672, -1.5046823024749756, 0.22429822385311127,
          -5.7537922859191895, -1.9212862253189087, 3.1238131523132324
        ],
        [
          3.3285553455352783, 2.0538337230682373, -0.7786684632301331,
          1.8772345781326294, 0.726628839969635, 1.0837525129318237,
          1.6859766244888306, 1.4522589445114136, 1.6262346506118774,
          0.294885516166687, 1.3137998580932617, 1.3904149532318115,
          0.6553418636322021, -1.9158753156661987, 2.355132579803467,
          1.838234305381775, 0.7444252371788025, 2.9117465019226074,
          1.6279067993164062, 1.943759799003601, -2.1067042350769043,
          -0.19333210587501526, 1.6145646572113037, 1.1174260377883911,
          1.1303311586380005, 0.4898693561553955, 1.9717686176300049,
          -0.09067226201295853, 3.9698214530944824, 0.9609805345535278
        ],
        [
          0.30593231320381165, -1.0659784078598022, -1.445536494255066,
          -2.17793869972229, 3.0060298442840576, -0.8551613688468933,
          -2.2211649417877197, -1.5170023441314697, -1.7268527746200562,
          -2.733013391494751, 1.5214818716049194, -2.206345796585083,
          -1.2788238525390625, 2.8538119792938232, -0.07359299808740616,
          -3.6677558422088623, 3.3302834033966064, -1.8518060445785522,
          -1.2814767360687256, -2.4197959899902344, 3.976994514465332,
          -1.5994350910186768, -0.015218479558825493, -0.8974034786224365,
          -1.8609082698822021, 2.420511484146118, -0.03586491197347641,
          -7.286431789398193, -2.3812365531921387, -4.479201793670654
        ],
        [
          -0.5471818447113037, -0.42877572774887085, -0.5241560935974121,
          -0.3169151246547699, 0.41874274611473083, -0.2578267753124237,
          -0.26920345425605774, -0.12638182938098907, -0.15244485437870026,
          -0.38881081342697144, -0.11211127042770386, -0.22785435616970062,
          0.006566894706338644, -0.6139688491821289, 0.0991424024105072,
          -0.16445621848106384, 0.28132331371307373, -0.5070215463638306,
          -0.3165162205696106, -0.298676073551178, -0.5977442264556885,
          -0.1183604747056961, 0.07126972079277039, 0.0078098364174366,
          -0.3121070861816406, 0.11395943909883499, -0.034965697675943375,
          -0.3574621081352234, -0.6252487301826477, -0.6607062816619873
        ],
        [
          -3.7919294834136963, 1.3946378231048584, -1.726463794708252,
          -1.5739349126815796, -0.19629353284835815, 0.5216041207313538,
          -1.0086172819137573, -0.8033140301704407, 1.1276358366012573,
          -1.8379641771316528, 3.1761972904205322, -6.733404159545898,
          -1.90974760055542, 0.013986472971737385, 2.0865328311920166,
          -1.6670196056365967, -2.8636772632598877, -1.7768404483795166,
          0.3290710747241974, 1.2250083684921265, -0.581078290939331,
          -3.80745530128479, -0.8611575961112976, 0.9613791108131409,
          -0.9907165765762329, -0.5554296970367432, 0.5082376003265381,
          1.4062665700912476, -0.7988939881324768, 1.3943027257919312
        ],
        [
          0.2842745780944824, -0.2029189020395279, 7.7643842697143555,
          0.51303631067276, 1.5533602237701416, 0.3221583068370819,
          0.6483431458473206, 1.283055305480957, 1.1579480171203613,
          2.7544286251068115, 0.5978068709373474, 1.504760503768921,
          0.344210684299469, -2.277968645095825, 1.3757374286651611,
          1.3233706951141357, 1.0432952642440796, -0.6959837675094604,
          -0.5682061910629272, 0.6759212017059326, -1.8078275918960571,
          0.9382678866386414, 0.8212067484855652, -0.1934024840593338,
          1.3446199893951416, 2.2927799224853516, 1.1931623220443726,
          -2.510179042816162, 0.26358097791671753, -2.3974244594573975
        ],
        [
          -0.006062307395040989, -0.219656839966774, -0.4095350503921509,
          0.19770054519176483, -0.05011129751801491, -0.1830424964427948,
          -0.2625129222869873, -0.2203347533941269, -0.8249748349189758,
          -0.5380626916885376, 0.4095275402069092, -0.13667190074920654,
          -0.21929343044757843, -0.8759812712669373, 0.6606096625328064,
          -0.35729339718818665, -0.04969416931271553, -0.44474440813064575,
          -0.3993733525276184, -0.5426766276359558, -0.914415717124939,
          -0.2982136607170105, -0.2417980283498764, -0.2681843638420105,
          -0.5712708234786987, -0.06534256786108017, 0.3385888636112213,
          -0.4347781240940094, -0.4165151119232178, -0.8089408874511719
        ],
        [
          -3.24481463432312, -1.057694435119629, -1.2513492107391357,
          -0.812863290309906, 1.1972957849502563, 0.3037168085575104,
          0.19868670403957367, -0.6354665756225586, -1.1454219818115234,
          -0.21352599561214447, 0.8501074910163879, -4.151994228363037,
          0.1005840003490448, -1.314456582069397, 3.3061749935150146,
          -2.168290853500366, 0.5599477291107178, -0.8323725461959839,
          -1.2982628345489502, -0.8049910664558411, -0.3215166926383972,
          -2.74411940574646, -1.3148794174194336, -0.8886865973472595,
          -1.068120002746582, 0.6211339235305786, 3.035329580307007,
          -0.2747390866279602, -1.0647684335708618, -0.9172003865242004
        ],
        [
          -0.3247521221637726, -0.25928452610969543, 0.16851706802845,
          -0.14374998211860657, -0.12146367877721786, -0.10775578022003174,
          -0.0017121890559792519, -0.1812009960412979, -0.18142372369766235,
          -0.39673200249671936, -0.386329710483551, -0.225070059299469,
          -0.1512955129146576, -0.8031002283096313, 0.14621159434318542,
          -0.008509545587003231, -0.3114258944988251, -0.22400733828544617,
          -0.010253101587295532, -0.21703292429447174, -0.8206126093864441,
          -0.0547507181763649, -0.3707773685455322, 0.07909486442804337,
          -0.21479351818561554, -0.3003455400466919, -0.16513727605342865,
          -0.6179857850074768, -0.44794052839279175, -0.36496156454086304
        ],
        [
          -3.3052432537078857, 2.5273070335388184, -2.790640354156494,
          -1.3387336730957031, 1.505676507949829, 1.2319902181625366,
          1.0077884197235107, -1.215319037437439, -0.011863564141094685,
          -0.1921028047800064, 0.5139893889427185, -2.2270798683166504,
          0.8797234296798706, -1.05899178981781, 1.764634370803833,
          -1.9933862686157227, 0.49708569049835205, 1.6409683227539062,
          1.5061179399490356, 1.4332764148712158, 0.865423858165741,
          -1.84319269657135, -2.029296636581421, 1.6115423440933228,
          -0.20680922269821167, 1.7760969400405884, 0.27860352396965027,
          1.0726394653320312, 4.124867916107178, -0.9122209548950195
        ],
        [
          0.227309912443161, 0.9099357724189758, -1.28290855884552,
          0.3199674189090729, 0.5513991117477417, 0.4780838191509247,
          -0.29356566071510315, -1.032397985458374, -0.29514169692993164,
          -1.0577077865600586, -0.01683894172310829, -0.17989934980869293,
          -0.23117874562740326, -0.9811109900474548, 0.4017821252346039,
          -2.258817672729492, 0.976774275302887, 0.2234804779291153,
          0.5471206903457642, 0.9071858525276184, -1.1154757738113403,
          -0.3270493149757385, 0.16286645829677582, 0.021076971665024757,
          0.10690505802631378, 0.5911690592765808, -0.355566143989563,
          0.08626435697078705, 1.6717708110809326, -1.1010189056396484
        ],
        [
          0.7363086342811584, -0.2954276502132416, 2.951992988586426,
          0.9593095779418945, -1.5308198928833008, 2.2042460441589355,
          -1.382883906364441, 1.828180193901062, -0.47075220942497253,
          0.07478561252355576, -1.4929002523422241, 0.37411314249038696,
          0.41354048252105713, -0.8247350454330444, -2.798034429550171,
          -0.15947678685188293, -0.28541070222854614, 0.6295061707496643,
          1.5247949361801147, -1.3084759712219238, -2.4841513633728027,
          3.4483911991119385, -0.5223762392997742, 1.2778841257095337,
          1.5307269096374512, -0.7373833656311035, -1.8268721103668213,
          -1.7253203392028809, -1.2908886671066284, -0.6117538809776306
        ]
      ],
      "biases": [
        -2.0001440048217773, -0.7260135412216187, -1.9576793909072876,
        -0.7536716461181641, -1.191762089729309, -2.4552650451660156,
        -2.5483579635620117, -0.7520224452018738, -2.7414841651916504,
        -1.2029402256011963, -1.2312895059585571, -0.1027812659740448,
        -1.3359185457229614, -2.8024590015411377, -1.163045883178711,
        -1.508547306060791, -1.3483872413635254, -1.264755368232727,
        0.6689202785491943, -1.4851802587509155, 2.271829605102539,
        -0.8111559152603149, 0.9452618956565857, -1.5276825428009033,
        -1.261892318725586, 0.322934091091156, -1.2139381170272827,
        -0.3752533197402954, -1.394461750984192, -2.0024383068084717
      ]
    },
    {
      "weights": [
        [
          -1.1353703737258911, 0.9241092801094055, -0.9642663598060608,
          0.1945180594921112, 0.14477282762527466, -0.6354924440383911,
          0.40378230810165405, -0.10365811735391617, 0.3158760070800781,
          -0.5066431760787964, -0.3854909837245941, -0.5309619903564453,
          -1.1072602272033691, -0.7958119511604309, -0.40396127104759216,
          -0.3815248906612396, 0.07341048866510391, -0.23262177407741547,
          -1.4584394693374634, 0.048738233745098114, -0.6631264090538025,
          0.033497877418994904, 0.4588022828102112, -0.9833235144615173,
          -0.24039337038993835, -2.10188364982605, -0.27919235825538635,
          -0.7763389348983765, -0.6921516060829163, -1.3809072971343994
        ],
        [
          -0.591692328453064, -0.5264756679534912, -0.5095484852790833,
          -0.252668559551239, -0.41979584097862244, -0.3861950635910034,
          -0.2791695296764374, -0.10801736265420914, -0.6846485137939453,
          -0.3696255385875702, -0.3287566006183624, -0.6327033042907715,
          -0.29709234833717346, -0.30537304282188416, -0.3013472557067871,
          -0.2375371754169464, -0.5034226179122925, -0.1292646825313568,
          -0.27362576127052307, -0.49604010581970215, -0.3390377163887024,
          -0.4811917543411255, -0.14957910776138306, -0.31136956810951233,
          -0.5575622320175171, -0.19332954287528992, -0.1793951690196991,
          -0.3331848084926605, -0.39026787877082825, -0.7462127208709717
        ],
        [
          -0.7869985103607178, -0.4003428518772125, -0.5363454222679138,
          -0.50318843126297, -0.5158182978630066, -0.4817844331264496,
          -0.4998275935649872, -0.26264095306396484, -0.7582747340202332,
          -0.30645984411239624, -0.37761661410331726, -0.25356248021125793,
          -0.004722126293927431, -0.9245352149009705, -0.5921368598937988,
          0.09802084416151047, -0.2752835750579834, -0.17393721640110016,
          -0.47759896516799927, -0.7578815817832947, -0.54990553855896,
          -0.02680179476737976, -0.5608210563659668, -0.8997425436973572,
          -0.05447777360677719, 0.03447480499744415, -0.25922027230262756,
          -0.5444154739379883, -0.54374760389328, -0.537745475769043
        ],
        [
          -1.1248420476913452, 0.5645481944084167, -0.7242365479469299,
          -0.32996201515197754, -0.4181120693683624, -0.8803942203521729,
          -2.2369184494018555, 0.12158749252557755, -1.9911149740219116,
          -0.1985069066286087, 0.2977197766304016, 1.620018482208252,
          -0.08431349694728851, -2.1217994689941406, -1.4043619632720947,
          0.5019218921661377, -0.23725691437721252, 0.0050291381776332855,
          2.5622363090515137, -1.078615427017212, 1.0559029579162598,
          0.36094868183135986, 0.9835808277130127, -2.8667213916778564,
          0.011990834958851337, 1.0100475549697876, -0.30917519330978394,
          -1.2945008277893066, -0.894709587097168, 1.5751386880874634
        ],
        [
          -0.511702299118042, -0.426035612821579, -0.25225627422332764,
          -0.5540540814399719, -0.3183433711528778, -0.10106708109378815,
          -0.5443569421768188, -0.2992575168609619, -0.3695004880428314,
          -0.3962450325489044, -0.5755406022071838, -0.5579248666763306,
          -0.17527809739112854, 0.13409315049648285, -0.26182347536087036,
          -0.3361830413341522, -0.4650935232639313, -0.4637657105922699,
          -0.1546713262796402, -0.2566334009170532, -0.6564170122146606,
          -0.311288982629776, -0.39088910818099976, -0.27653706073760986,
          -0.48882314562797546, -0.16414764523506165, -0.22510138154029846,
          -0.423830509185791, -0.5077698230743408, -0.5460569262504578
        ],
        [
          -0.7757113575935364, 2.917943239212036, -3.3308780193328857,
          -0.06314720958471298, -1.8412047624588013, -0.3439635634422302,
          3.3686559200286865, 0.3632367253303528, 0.2150741070508957,
          0.5735741257667542, -1.9304275512695312, -1.067276954650879,
          0.7360603213310242, -3.874462127685547, 1.9555613994598389,
          4.031522750854492, -0.049136124551296234, 1.207526683807373,
          2.9573473930358887, 0.4034883379936218, -0.9951702356338501,
          0.2950890362262726, -5.502862930297852, 0.562957227230072,
          0.26625940203666687, 0.4163297414779663, 0.5213887691497803,
          -3.71964955329895, 0.1387084424495697, 4.731323719024658
        ],
        [
          -2.6266772747039795, -3.3303418159484863, -1.6411755084991455,
          -2.1177453994750977, -1.4989408254623413, -0.0031648341100662947,
          0.4070466160774231, -0.49943384528160095, -2.1459274291992188,
          -0.5470544099807739, -3.8433070182800293, 0.34195104241371155,
          -0.633780300617218, -1.455191969871521, -1.650020718574524,
          7.208136558532715, -0.7858526110649109, 2.066964864730835,
          -1.2861499786376953, 2.7409074306488037, -5.509243488311768,
          -0.43233779072761536, -0.9147859215736389, -1.3687000274658203,
          -0.8209941983222961, -0.7170045971870422, -0.4057646691799164,
          -1.3734488487243652, -1.9829373359680176, -3.9746999740600586
        ],
        [
          -0.6728273630142212, -0.3628304600715637, -0.8251906037330627,
          -0.33880358934402466, -0.7473652958869934, -0.5416446328163147,
          -0.36066800355911255, -0.227056622505188, -1.0512255430221558,
          -0.4618813991546631, -0.20820870995521545, -0.5541987419128418,
          -0.06553594022989273, -0.7676208019256592, -0.6861422657966614,
          0.36887022852897644, -0.27417901158332825, -0.0724419578909874,
          -0.19194719195365906, -0.894216001033783, -0.675184428691864,
          -0.06096363067626953, -0.6295148134231567, -0.7873902916908264,
          -0.18519198894500732, -0.030904114246368408, -0.4070591628551483,
          -0.7490991353988647, -0.61142498254776, -0.323436975479126
        ],
        [
          -0.34005147218704224, -0.2145146131515503, -0.33541905879974365,
          -0.16648180782794952, -0.5140533447265625, -0.25966876745224,
          -0.5894066691398621, -0.24972158670425415, -0.4424552023410797,
          -0.4819129705429077, -0.45961064100265503, -0.5917516350746155,
          -0.395139217376709, -0.01984618790447712, -0.2568908929824829,
          -0.23542676866054535, -0.18580709397792816, -0.48191729187965393,
          -0.34089574217796326, -0.275023877620697, -0.7243257761001587,
          -0.44231244921684265, -0.33975717425346375, -0.6947075128555298,
          -0.3151296377182007, -0.3158226013183594, -0.47875604033470154,
          -0.29676729440689087, -0.3421407639980316, -0.5719334483146667
        ],
        [
          -0.8005852699279785, -0.2782423794269562, -0.7122259736061096,
          -0.4529246389865875, -0.6882204413414001, -0.3612850308418274,
          -0.46260392665863037, -0.1129244714975357, -0.9487862586975098,
          -0.22826391458511353, -0.3999422490596771, -0.5017422437667847,
          -0.14782172441482544, -1.1820611953735352, -0.8095698952674866,
          0.34199488162994385, -0.17568852007389069, -0.195952370762825,
          -0.6843782067298889, -1.0211299657821655, -0.4921109974384308,
          0.17934168875217438, -0.38139450550079346, -0.8972806334495544,
          -0.07174653559923172, -0.13986454904079437, -0.10402878373861313,
          -0.5596848130226135, -0.4312351644039154, -0.5519546270370483
        ],
        [
          -0.5792084336280823, -0.24373699724674225, -0.41090208292007446,
          -0.15668217837810516, -0.5901569128036499, -0.5521268844604492,
          -0.5464032888412476, -0.04773632064461708, -0.5880419015884399,
          -0.054876480251550674, -0.39909064769744873, -0.24195092916488647,
          -0.1087818518280983, -0.6235794425010681, -0.649530291557312,
          -0.05055272579193115, -0.2524982690811157, -0.5179553627967834,
          -0.6742864847183228, -0.4785931408405304, -0.06076531112194061,
          -0.049958735704422, -0.43077796697616577, -0.7126373052597046,
          -0.19668762385845184, -0.20546703040599823, -0.36880117654800415,
          -0.6314175724983215, -0.30494990944862366, -0.7722756862640381
        ],
        [
          -0.3149724006652832, -0.4974913001060486, -0.41932377219200134,
          -0.1529974490404129, -0.5264690518379211, -0.19962218403816223,
          -0.4823353588581085, -0.4026799201965332, -0.4634447991847992,
          -0.309308797121048, -0.361477255821228, -0.6183091402053833,
          -0.17814533412456512, -0.3149498999118805, -0.5503387451171875,
          -0.42064976692199707, -0.32847848534584045, -0.22691559791564941,
          -0.44498419761657715, -0.3599998652935028, -0.5430784225463867,
          -0.450774610042572, -0.2713942527770996, -0.6805528402328491,
          -0.1659737080335617, -0.26547664403915405, -0.21808679401874542,
          -0.20866823196411133, -0.6520779132843018, -0.4790756106376648
        ],
        [
          -0.287878155708313, -0.4707513749599457, -0.17137934267520905,
          -0.31903642416000366, -0.16392368078231812, -0.06953379511833191,
          -0.41124412417411804, -0.2884516716003418, -0.5206130743026733,
          -0.22879672050476074, -0.6647834181785583, -0.7777021527290344,
          -0.17436419427394867, 0.3001558184623718, -0.28697505593299866,
          -0.32547736167907715, -0.35305240750312805, -0.3189530670642853,
          -0.05918334424495697, -0.11972871422767639, -0.5860730409622192,
          -0.267061322927475, -0.385590136051178, -0.12125513702630997,
          -0.2646123766899109, -0.2688294053077698, -0.1265724152326584,
          -0.3719520568847656, -0.5861026644706726, -0.41138985753059387
        ],
        [
          1.0298941135406494, -1.2709048986434937, 3.4367754459381104,
          1.4099074602127075, 0.8945463299751282, -1.6648133993148804,
          -1.4375526905059814, -0.7368605136871338, -1.7864594459533691,
          -0.7818683981895447, 1.751929521560669, -3.9010345935821533,
          2.4698421955108643, 2.8448569774627686, -1.9420710802078247,
          0.27855923771858215, 0.013482185080647469, -1.23276948928833,
          -1.4822942018508911, -2.726083755493164, -1.2162314653396606,
          -0.10459286719560623, 3.5015363693237305, 2.4946892261505127,
          -0.5778061151504517, -4.903280735015869, -0.12420658022165298,
          -0.8358502984046936, 0.32951468229293823, -1.3012007474899292
        ],
        [
          -0.40280476212501526, -0.46614938974380493, -0.47653722763061523,
          -0.3373517096042633, -0.519724428653717, -0.4374430775642395,
          -0.388754665851593, -0.34985587000846863, -0.5193610191345215,
          -0.17872834205627441, -0.44702932238578796, -0.3864486813545227,
          -0.2417508065700531, -0.5475349426269531, -0.6000083684921265,
          -0.247540682554245, -0.3545553982257843, -0.23006713390350342,
          -0.31429269909858704, -0.49944189190864563, -0.24036262929439545,
          -0.04748205840587616, -0.4867599606513977, -0.73624187707901,
          -0.1726493388414383, -0.15593180060386658, -0.4126352071762085,
          -0.4504827558994293, -0.576295018196106, -0.6336255669593811
        ],
        [
          -0.759125828742981, -0.2682834267616272, -0.3826971650123596,
          -0.15219491720199585, -0.2366403490304947, -0.47532063722610474,
          -0.5261353850364685, -0.09782501310110092, -0.546902060508728,
          -0.4025346338748932, -0.09811678528785706, -0.06683918088674545,
          -0.138003870844841, -0.8070176839828491, -0.6782371401786804,
          -0.16910651326179504, -0.12979133427143097, -0.28520360589027405,
          -0.7983416318893433, -0.543721079826355, 0.2818715274333954,
          -0.24880367517471313, 0.09658387303352356, -0.87005215883255,
          -0.3686365485191345, -0.022278958931565285, -0.4804303050041199,
          -0.5189639925956726, -0.28321167826652527, -0.7902664542198181
        ],
        [
          -1.002642273902893, -0.8660396933555603, -0.673391580581665,
          -0.9812777042388916, -1.1476372480392456, 0.1405610591173172,
          -0.45048707723617554, -0.3085724413394928, -1.1376683712005615,
          -0.4645005166530609, -1.4093871116638184, -1.456865906715393,
          -0.07224835455417633, 0.19376635551452637, -0.6471987962722778,
          0.9089652299880981, -0.44503799080848694, -0.09787622839212418,
          1.8142170906066895, -1.0925731658935547, -2.9441237449645996,
          0.23761461675167084, -1.1797412633895874, -0.27894148230552673,
          -0.3138088881969452, -0.2638411223888397, 0.0012359187239781022,
          -1.558753252029419, -1.135669469833374, -0.6491720080375671
        ],
        [
          -0.7232558727264404, -0.3179479241371155, -0.5897496938705444,
          -0.2721725106239319, -0.4121803343296051, -0.3641127347946167,
          -0.3291076123714447, -0.04917215183377266, -0.2905765175819397,
          -0.26181355118751526, -0.18578435480594635, -0.31364187598228455,
          -0.1611393392086029, -0.6410650610923767, -0.2502659857273102,
          -0.4146459400653839, -0.35291868448257446, -0.428385853767395,
          -0.3258461356163025, -0.30729174613952637, -0.3498954474925995,
          -0.47783955931663513, -0.27577152848243713, -0.7316527962684631,
          -0.2793649733066559, -0.25924932956695557, -0.15266574919223785,
          -0.5442617535591125, -0.4538712203502655, -0.762733519077301
        ],
        [
          -0.1121925488114357, -0.7876170873641968, -0.12802881002426147,
          1.100291132926941, -0.6653026938438416, 0.10485012084245682,
          0.015895698219537735, -0.6577503085136414, 0.4340546429157257,
          -0.8188985586166382, -3.122926712036133, 0.21014583110809326,
          -0.27809789776802063, 2.2883780002593994, -0.17393489181995392,
          -0.8528613448143005, -0.30894234776496887, 0.8769660592079163,
          1.6321195363998413, -0.5903242230415344, -2.161635160446167,
          -0.3644310534000397, 0.7088195085525513, 1.8433012962341309,
          -0.6531423330307007, -0.2471882700920105, -0.31438347697257996,
          0.6054717302322388, -1.1802849769592285, -1.7289923429489136
        ],
        [
          -0.7620158195495605, -0.49768051505088806, -0.8094139099121094,
          -0.6163330674171448, -1.128106713294983, -0.2619406282901764,
          -0.5367522239685059, -0.17463940382003784, -1.0954689979553223,
          -0.43566617369651794, -0.7030405402183533, -1.1240358352661133,
          -0.24556726217269897, -0.8669636845588684, -0.8316876888275146,
          0.9219079613685608, -0.21949699521064758, -0.18018704652786255,
          0.11427488178014755, -1.1107995510101318, -1.4244253635406494,
          0.2930702567100525, -1.2638261318206787, -0.5887461304664612,
          -0.3232341706752777, -0.21483895182609558, 0.004406521562486887,
          -0.8466711640357971, -0.8340857625007629, -0.3726499378681183
        ],
        [
          -0.38634639978408813, -0.20688559114933014, -0.3400041460990906,
          -0.30579549074172974, -0.25754377245903015, -0.261733740568161,
          -0.4817773997783661, -0.1377951204776764, -0.7456023693084717,
          -0.28960663080215454, -0.26685577630996704, -0.5833153128623962,
          -0.48980456590652466, -0.3059355318546295, -0.6046912670135498,
          -0.22783955931663513, -0.5000001788139343, -0.3937816619873047,
          -0.43070653080940247, -0.6217234134674072, -0.44222116470336914,
          -0.23199374973773956, -0.2935347557067871, -0.6670276522636414,
          -0.35694360733032227, -0.22506780922412872, -0.5141602754592896,
          -0.5685213804244995, -0.5104698538780212, -0.5738335847854614
        ],
        [
          -2.1091694831848145, 0.34570249915122986, -0.8380605578422546,
          0.6514458656311035, -1.9859898090362549, 0.35084232687950134,
          -0.6094864010810852, -0.25099244713783264, -1.411798357963562,
          -0.2732560932636261, 0.7533119916915894, -2.7368621826171875,
          1.0037469863891602, -0.932877779006958, -2.7715985774993896,
          4.426506996154785, -0.1993277221918106, -0.9090090394020081,
          -2.9458959102630615, -0.9193207025527954, -0.11484365165233612,
          0.1977345496416092, -4.89047384262085, 2.9705142974853516,
          -0.365183562040329, -0.6984802484512329, -0.35893067717552185,
          -4.263890743255615, -0.6551434993743896, -0.7571014761924744
        ],
        [
          -0.6830908060073853, 0.014746597036719322, -0.5901264548301697,
          -0.256264865398407, -0.4214341342449188, -0.5179520845413208,
          -0.5338102579116821, -0.23633936047554016, -0.44064295291900635,
          -0.3422587215900421, -0.11231216788291931, 0.35862940549850464,
          -0.142023503780365, -0.8895282745361328, -0.635135293006897,
          0.015253462828695774, -0.20017656683921814, -0.0712309330701828,
          -0.6233340501785278, -0.5845312476158142, 0.0638817623257637,
          -0.0386357307434082, 0.27983957529067993, -1.3884882926940918,
          -0.08142559230327606, 0.14750780165195465, -0.15731635689735413,
          -0.5165279507637024, -0.23712825775146484, -0.8098984956741333
        ],
        [
          -0.362621933221817, -0.3139336109161377, -0.3262022137641907,
          -0.19076007604599, -0.594610869884491, -0.38461461663246155,
          -0.6207372546195984, -0.13110840320587158, -0.729962170124054,
          -0.38618478178977966, -0.21905331313610077, -0.40110722184181213,
          -0.3603312075138092, -0.5248313546180725, -0.5560404658317566,
          -0.4597356617450714, -0.14322173595428467, -0.2553914487361908,
          -0.5545219779014587, -0.5842729806900024, -0.5464777946472168,
          -0.16304585337638855, -0.4147302210330963, -0.6462289690971375,
          -0.2814679443836212, -0.2667030394077301, -0.17483514547348022,
          -0.6454817056655884, -0.3274284601211548, -0.5066168308258057
        ],
        [
          -0.46156933903694153, -0.37912294268608093, -0.47584348917007446,
          -0.2628636360168457, -0.393674373626709, -0.48951151967048645,
          -0.4044446051120758, -0.18103112280368805, -0.5451511144638062,
          -0.14804646372795105, -0.5774734020233154, -0.4416411817073822,
          -0.18015560507774353, -0.5036285519599915, -0.5014758110046387,
          -0.3681265413761139, -0.3560861349105835, -0.4899003207683563,
          -0.28765061497688293, -0.8281102776527405, -0.6607816219329834,
          -0.09849343448877335, -0.6567433476448059, -0.9952199459075928,
          -0.17500124871730804, -0.19803433120250702, -0.14972200989723206,
          -0.3755127787590027, -0.5394814610481262, -0.5792894959449768
        ],
        [
          -0.7722357511520386, 0.045333608984947205, -0.4456535279750824,
          -0.3481022119522095, -0.5311399102210999, -0.7028782367706299,
          -0.47105130553245544, -0.1592857390642166, -0.4374614357948303,
          -0.17715445160865784, -0.3564022183418274, 0.06664866209030151,
          -0.057734664529561996, -0.7013022899627686, -0.3458486795425415,
          -0.022765368223190308, -0.12218527495861053, -0.19904708862304688,
          -0.6311781406402588, -0.7159742712974548, -0.0811021476984024,
          -0.17083290219306946, -0.105838343501091, -0.9050264954566956,
          -0.2740406394004822, 0.03752102330327034, -0.4465649425983429,
          -0.5003643035888672, -0.5231424570083618, -0.6122455596923828
        ],
        [
          -0.944310188293457, -0.5956475138664246, -0.6666844487190247,
          -0.5852705836296082, -0.8407031297683716, -0.6309961080551147,
          -0.5208962559700012, 0.028164006769657135, -1.0723319053649902,
          -0.30511197447776794, -0.6072935461997986, -0.685276448726654,
          0.024011218920350075, -0.8508672118186951, -0.8751035928726196,
          0.3514571487903595, -0.4979799687862396, -0.11699780821800232,
          -0.01599343679845333, -1.0843425989151, -1.3013648986816406,
          0.060479484498500824, -0.8290162682533264, -0.9516042470932007,
          -0.26315996050834656, -0.38689863681793213, -0.2825847566127777,
          -0.9289268851280212, -0.6351100206375122, -0.48910534381866455
        ],
        [
          4.460606575012207, -3.575871467590332, 0.7290980815887451,
          -3.8088698387145996, 0.2676650285720825, 1.717397928237915,
          -1.5838422775268555, -0.8415258526802063, -4.053402423858643,
          -2.46400785446167, -2.6121606826782227, -1.7120410203933716,
          0.21564067900180817, 2.2497973442077637, 6.968161582946777,
          -3.328885793685913, -0.08354488760232925, 0.10018594563007355,
          3.4666974544525146, -4.371596813201904, -4.026837348937988,
          -0.35748812556266785, 0.4795624613761902, -3.619072914123535,
          -1.0043140649795532, -1.034568428993225, 0.020992109552025795,
          -0.6862618923187256, 0.7624112367630005, 0.03863081336021423
        ],
        [
          -0.8413748145103455, -0.8867043852806091, -0.806753933429718,
          -0.710632860660553, -1.1424802541732788, -0.3323422074317932,
          -0.4187525510787964, 0.008912232704460621, -0.9101107716560364,
          -0.5076810121536255, -0.875991702079773, -1.2504298686981201,
          -0.005520367529243231, -0.8209512829780579, -0.5077532529830933,
          1.1524677276611328, -0.36552712321281433, 0.022095637395977974,
          0.3238326609134674, -0.912404477596283, -2.107426166534424,
          0.19373087584972382, -1.17609703540802, -0.3988872468471527,
          -0.5174350738525391, -0.09182406961917877, 0.007300202734768391,
          -1.1579539775848389, -0.7226323485374451, -0.4765780568122864
        ],
        [
          -0.39778274297714233, -0.6255800724029541, -0.5403255224227905,
          -0.9312722682952881, 2.4279136657714844, -1.4281716346740723,
          -1.6029629707336426, 0.3860603868961334, -2.0004405975341797,
          0.24205350875854492, -0.18226589262485504, 3.172769069671631,
          0.29318490624427795, -0.32410964369773865, -2.277012586593628,
          0.36908113956451416, -0.10711416602134705, 0.07455909997224808,
          2.7879064083099365, -0.7147982716560364, 0.41438987851142883,
          0.7989994883537292, 1.0988668203353882, -5.13383150100708,
          -0.5656173825263977, 0.37618008255958557, -0.11412458121776581,
          2.310323476791382, -0.3563570976257324, -1.8780646324157715
        ]
      ],
      "biases": [
        0.7566893100738525, -1.5139789581298828, -0.8422685861587524,
        -0.8864286541938782, -1.5118342638015747, 1.0557444095611572,
        0.9756126403808594, -0.9082891345024109, -1.343966007232666,
        -0.31981968879699707, -0.7752066850662231, -1.4332925081253052,
        -1.4745687246322632, 5.256685256958008, -1.4450573921203613,
        -0.42620769143104553, 0.2524242699146271, -1.0174682140350342,
        -1.4016236066818237, -0.2910112738609314, -1.4508692026138306,
        1.8225517272949219, -0.362120121717453, -1.3691645860671997,
        -1.3102872371673584, -0.7526658773422241, -0.6754557490348816,
        3.580794095993042, -0.023652002215385437, 0.6978861093521118
      ]
    },
    {
      "weights": [
        [
          -1.0571845769882202, -0.44730299711227417, -0.39322662353515625,
          1.4346283674240112, -0.16246213018894196, -8.39716625213623,
          11.404522895812988, -0.4534544050693512, -0.17197123169898987,
          -0.7929207682609558, -0.66246098279953, -0.24614585936069489,
          -0.27491071820259094, -7.407008647918701, -0.3043988347053528,
          -0.7922459244728088, 1.3607131242752075, -0.44103479385375977,
          -0.551025927066803, -0.1774493157863617, -0.19097961485385895,
          -1.2190178632736206, -0.6498802900314331, -0.1511528342962265,
          -0.008364834822714329, -0.6488297581672668, -0.0012640978675335646,
          9.887629508972168, 0.43071550130844116, -1.0891636610031128
        ],
        [
          -3.669420003890991, -0.14084583520889282, -0.7573213577270508,
          2.0390663146972656, 0.09897660464048386, 0.8673715591430664,
          8.566247940063477, -0.11721391975879669, -0.25235626101493835,
          -0.639922022819519, -0.9344050884246826, -0.29217833280563354,
          0.39449647068977356, 14.48488998413086, -0.5534847974777222,
          -1.4175151586532593, 1.9955750703811646, -0.8908030390739441,
          1.5167773962020874, 0.5003883242607117, -0.42240282893180847,
          2.053687572479248, -1.7666146755218506, -0.49882033467292786,
          -0.6191161274909973, -1.1079182624816895, 0.013461829163134098,
          8.339899063110352, 0.7979722619056702, -6.131512641906738
        ],
        [
          1.5373061895370483, -0.4143383502960205, 1.3116427659988403,
          4.585103988647461, -0.6707477569580078, 6.041743755340576,
          3.203658103942871, 1.7133723497390747, -0.6347783207893372,
          1.9744606018066406, 0.8381571173667908, -0.48847103118896484,
          -0.8216615319252014, -9.29802131652832, 0.3153873682022095,
          1.0609488487243652, 2.1810805797576904, 0.10160698741674423,
          -8.023680686950684, 2.4864513874053955, -0.03592609614133835,
          7.319008827209473, 1.3190006017684937, 0.06345047801733017,
          0.5353944897651672, 1.1279693841934204, 2.076357364654541,
          13.852071762084961, 2.668757200241089, 6.700845241546631
        ]
      ],
      "biases": [7.647857666015625, -15.933687210083008, -4.7988386154174805]
    }
  ],
  "inputLookup": {
    "rojo": 0,
    "verde": 1,
    "azul": 2
  },
  "inputLookupLength": 3,
  "outputLookup": {
    "rojo": 0,
    "verde": 1,
    "azul": 2
  },
  "outputLookupLength": 3,
  "options": {
    "inputSize": 0,
    "outputSize": 0,
    "binaryThresh": 0.5,
    "hiddenLayers": [30, 30, 30, 30, 30]
  },
  "trainOpts": {
    "activation": "sigmoid",
    "iterations": 500000,
    "errorThresh": 0.0005,
    "log": true,
    "logPeriod": 5000,
    "leakyReluAlpha": 0.01,
    "learningRate": 0.5,
    "momentum": 0.1,
    "callbackPeriod": 10,
    "timeout": "Infinity",
    "beta1": 0.9,
    "beta2": 0.999,
    "epsilon": 1e-8
  }
}
